{"learner":{"attributes":{"scikit_learn":"{\"_estimator_type\": \"classifier\"}"},"feature_names":["complaints_per_unit_6m","class_c_per_unit_6m","complaints_6m","class_c_violations_6m"],"feature_types":["float","float","float","float"],"gradient_booster":{"model":{"cats":{"enc":[],"feature_segments":[],"sorted_idx":[]},"gbtree_model_param":{"num_parallel_tree":"1","num_trees":"300"},"iteration_indptr":[0,1,2,3,4,5,6,7,8,9,10,11,12,13,14,15,16,17,18,19,20,21,22,23,24,25,26,27,28,29,30,31,32,33,34,35,36,37,38,39,40,41,42,43,44,45,46,47,48,49,50,51,52,53,54,55,56,57,58,59,60,61,62,63,64,65,66,67,68,69,70,71,72,73,74,75,76,77,78,79,80,81,82,83,84,85,86,87,88,89,90,91,92,93,94,95,96,97,98,99,100,101,102,103,104,105,106,107,108,109,110,111,112,113,114,115,116,117,118,119,120,121,122,123,124,125,126,127,128,129,130,131,132,133,134,135,136,137,138,139,140,141,142,143,144,145,146,147,148,149,150,151,152,153,154,155,156,157,158,159,160,161,162,163,164,165,166,167,168,169,170,171,172,173,174,175,176,177,178,179,180,181,182,183,184,185,186,187,188,189,190,191,192,193,194,195,196,197,198,199,200,201,202,203,204,205,206,207,208,209,210,211,212,213,214,215,216,217,218,219,220,221,222,223,224,225,226,227,228,229,230,231,232,233,234,235,236,237,238,239,240,241,242,243,244,245,246,247,248,249,250,251,252,253,254,255,256,257,258,259,260,261,262,263,264,265,266,267,268,269,270,271,272,273,274,275,276,277,278,279,280,281,282,283,284,285,286,287,288,289,290,291,292,293,294,295,296,297,298,299,300],"tree_info":[0,0,0,0,0,0,0,0,0,0,0,0,0,0,0,0,0,0,0,0,0,0,0,0,0,0,0,0,0,0,0,0,0,0,0,0,0,0,0,0,0,0,0,0,0,0,0,0,0,0,0,0,0,0,0,0,0,0,0,0,0,0,0,0,0,0,0,0,0,0,0,0,0,0,0,0,0,0,0,0,0,0,0,0,0,0,0,0,0,0,0,0,0,0,0,0,0,0,0,0,0,0,0,0,0,0,0,0,0,0,0,0,0,0,0,0,0,0,0,0,0,0,0,0,0,0,0,0,0,0,0,0,0,0,0,0,0,0,0,0,0,0,0,0,0,0,0,0,0,0,0,0,0,0,0,0,0,0,0,0,0,0,0,0,0,0,0,0,0,0,0,0,0,0,0,0,0,0,0,0,0,0,0,0,0,0,0,0,0,0,0,0,0,0,0,0,0,0,0,0,0,0,0,0,0,0,0,0,0,0,0,0,0,0,0,0,0,0,0,0,0,0,0,0,0,0,0,0,0,0,0,0,0,0,0,0,0,0,0,0,0,0,0,0,0,0,0,0,0,0,0,0,0,0,0,0,0,0,0,0,0,0,0,0,0,0,0,0,0,0,0,0,0,0,0,0,0,0,0,0,0,0,0,0,0,0,0,0,0,0,0,0,0,0,0,0,0,0,0,0],"trees":[{"base_weights":[-1.1483314E-5,-1.019252E0,1.104449E0,-5.273494E-1,-1.5550832E0,7.139566E-1,1.3991947E0,-8.576442E-1,-1.8333115E-1,-1.7063258E0,-9.70492E-1,4.3195263E-1,9.0992576E-1,1.218766E0,1.5902991E0,-7.89726E-2,-1.2450788E-1,-8.896808E-2,1.2174586E-3,-1.6177043E-1,-1.8721388E-1,-4.1683238E-2,-1.3742726E-1,5.085034E-2,2.852954E-3,7.517884E-2,1.0129815E-1,1.04753494E-1,1.336175E-1,1.4771025E-1,1.7016418E-1],"categories":[],"categories_nodes":[],"categories_segments":[],"categories_sizes":[],"default_left":[0,0,0,0,0,0,0,0,0,0,0,0,0,0,0,0,0,0,0,0,0,0,0,0,0,0,0,0,0,0,0],"id":0,"left_children":[1,3,5,7,9,11,13,15,17,19,21,23,25,27,29,-1,-1,-1,-1,-1,-1,-1,-1,-1,-1,-1,-1,-1,-1,-1,-1],"loss_changes":[1.5895175E6,1.9355331E5,7.799681E4,4.3503703E4,3.1073875E4,1.6108797E4,1.3313875E4,5.138828E3,2.589805E4,4.10025E3,1.6150047E4,3.6908848E3,2.8020156E3,3.992125E3,2.3611875E3,0E0,0E0,0E0,0E0,0E0,0E0,0E0,0E0,0E0,0E0,0E0,0E0,0E0,0E0,0E0,0E0],"parents":[2147483647,0,0,1,1,2,2,3,3,4,4,5,5,6,6,7,7,8,8,9,9,10,10,11,11,12,12,13,13,14,14],"right_children":[2,4,6,8,10,12,14,16,18,20,22,24,26,28,30,-1,-1,-1,-1,-1,-1,-1,-1,-1,-1,-1,-1,-1,-1,-1,-1],"split_conditions":[1E0,2.3333333E0,4E0,1.2E1,1.4E1,1.6E1,9E0,1.7368422E0,2E-1,5.6666665E0,7E0,2.6666667E0,2E0,2.1E1,1.5E1,-7.89726E-2,-1.2450788E-1,-8.896808E-2,1.2174586E-3,-1.6177043E-1,-1.8721388E-1,-4.1683238E-2,-1.3742726E-1,5.085034E-2,2.852954E-3,7.517884E-2,1.0129815E-1,1.04753494E-1,1.336175E-1,1.4771025E-1,1.7016418E-1],"split_indices":[3,0,3,2,2,2,3,0,0,0,0,0,3,2,3,0,0,0,0,0,0,0,0,0,0,0,0,0,0,0,0],"split_type":[0,0,0,0,0,0,0,0,0,0,0,0,0,0,0,0,0,0,0,0,0,0,0,0,0,0,0,0,0,0,0],"sum_hessian":[1.4120104E6,7.343359E5,6.776745E5,3.8286297E5,3.514729E5,2.9149384E5,3.861807E5,1.9532667E5,1.8753628E5,2.7923E5,7.224292E4,1.1951388E5,1.7197995E5,1.986424E5,1.8753828E5,1.6619525E5,2.913142E4,4.0653664E4,1.4688262E5,1.8197905E5,9.725094E4,3.0467807E4,4.1775117E4,1.0045246E5,1.9061422E4,6.785929E4,1.0412066E5,8.080511E4,1.178373E5,9.3001914E4,9.453636E4],"tree_param":{"num_deleted":"0","num_feature":"4","num_nodes":"31","size_leaf_vector":"1"}},{"base_weights":[6.3180596E-5,-9.169378E-1,9.9725896E-1,-4.6984872E-1,-1.4077547E0,6.9774944E-1,1.3158284E0,-1.0164716E0,-3.8109812E-1,-9.953429E-1,-1.4561808E0,4.5959628E-1,8.313895E-1,1.1792576E0,1.4851673E0,-1.2121415E-1,-8.4339894E-2,-2.9833123E-2,-7.362616E-2,-1.05946496E-1,-4.8133176E-2,-1.3878039E-1,-1.5393497E-1,5.378545E-2,-1.2510913E-2,8.7207735E-2,4.0172987E-2,1.2024774E-1,9.7620174E-2,1.4080289E-1,1.5851049E-1],"categories":[],"categories_nodes":[],"categories_segments":[],"categories_sizes":[],"default_left":[0,0,0,0,0,0,0,0,0,0,0,0,0,0,0,0,0,0,0,0,0,0,0,0,0,0,0,0,0,0,0],"id":1,"left_children":[1,3,5,7,9,11,13,15,17,19,21,23,25,27,29,-1,-1,-1,-1,-1,-1,-1,-1,-1,-1,-1,-1,-1,-1,-1,-1],"loss_changes":[1.286455E6,1.6082362E5,6.430375E4,1.8605875E4,6.975875E3,1.1055219E4,7.5510625E3,1.8131992E3,9.699199E3,1.2095898E3,1.7758125E3,5.713541E3,3.8895156E3,8.5121875E2,1.12175E3,0E0,0E0,0E0,0E0,0E0,0E0,0E0,0E0,0E0,0E0,0E0,0E0,0E0,0E0,0E0,0E0],"parents":[2147483647,0,0,1,1,2,2,3,3,4,4,5,5,6,6,7,7,8,8,9,9,10,10,11,11,12,12,13,13,14,14],"right_children":[2,4,6,8,10,12,14,16,18,20,22,24,26,28,30,-1,-1,-1,-1,-1,-1,-1,-1,-1,-1,-1,-1,-1,-1,-1,-1],"split_conditions":[1E0,2.3333333E0,5E0,1.4035088E-1,3E0,2E0,1.1E1,8.173077E-2,1.5E0,2.75E0,6E0,2.631579E-1,8.333333E-1,1.625E0,1.9E1,-1.2121415E-1,-8.4339894E-2,-2.9833123E-2,-7.362616E-2,-1.05946496E-1,-4.8133176E-2,-1.3878039E-1,-1.5393497E-1,5.378545E-2,-1.2510913E-2,8.7207735E-2,4.0172987E-2,1.2024774E-1,9.7620174E-2,1.4080289E-1,1.5851049E-1],"split_indices":[3,0,3,0,0,3,3,0,0,0,0,1,1,1,3,0,0,0,0,0,0,0,0,0,0,0,0,0,0,0,0],"split_type":[0,0,0,0,0,0,0,0,0,0,0,0,0,0,0,0,0,0,0,0,0,0,0,0,0,0,0,0,0,0,0],"sum_hessian":[1.4068369E6,7.32888E5,6.739489E5,3.8352962E5,3.4935838E5,3.4736747E5,3.2658138E5,5.357095E4,3.299587E5,3.6713836E4,3.1264453E5,1.2486188E5,2.225056E5,1.807862E5,1.4579519E5,2.5141193E4,2.8429756E4,2.6759947E5,6.235922E4,3.2640879E4,4.0729573E3,1.7158995E5,1.4105458E5,1.1012288E5,1.4739E4,2.032566E5,1.9248998E4,1.6223005E5,1.8556152E4,8.2291984E4,6.35032E4],"tree_param":{"num_deleted":"0","num_feature":"4","num_nodes":"31","size_leaf_vector":"1"}},{"base_weights":[-8.7135757E-4,-8.332194E-1,9.046924E-1,-3.9151403E-1,-1.2543291E0,5.760613E-1,1.156058E0,-6.084559E-1,-1.5926993E-2,-1.436156E0,-8.003428E-1,3.6939254E-1,7.9097E-1,1.0188365E0,1.3411179E0,-1.1348911E-1,-5.566123E-2,-6.0910713E-2,2.0293867E-2,-1.1574941E-1,-1.4970495E-1,-3.0727444E-2,-1.1531257E-1,2.1256253E-2,5.1034052E-2,7.147174E-2,9.265127E-2,8.655789E-2,1.13093354E-1,1.2342527E-1,1.432012E-1],"categories":[],"categories_nodes":[],"categories_segments":[],"categories_sizes":[],"default_left":[0,0,0,0,0,0,0,0,0,0,0,0,0,0,0,0,0,0,0,0,0,0,0,0,0,0,0,0,0,0,0],"id":2,"left_children":[1,3,5,7,9,11,13,15,17,19,21,23,25,27,29,-1,-1,-1,-1,-1,-1,-1,-1,-1,-1,-1,-1,-1,-1,-1,-1],"loss_changes":[1.0505872E6,1.3509072E5,5.51435E4,2.8882352E4,3.0690125E4,1.2849539E4,9.60375E3,6.131617E3,1.6849361E4,4.5030625E3,1.8495148E4,3.2600488E3,1.4652031E3,3.7304062E3,1.5625E3,0E0,0E0,0E0,0E0,0E0,0E0,0E0,0E0,0E0,0E0,0E0,0E0,0E0,0E0,0E0,0E0],"parents":[2147483647,0,0,1,1,2,2,3,3,4,4,5,5,6,6,7,7,8,8,9,9,10,10,11,11,12,12,13,13,14,14],"right_children":[2,4,6,8,10,12,14,16,18,20,22,24,26,28,30,-1,-1,-1,-1,-1,-1,-1,-1,-1,-1,-1,-1,-1,-1,-1,-1],"split_conditions":[1E0,2E0,4E0,1.5E1,1.2E1,1.9E1,1E1,9.467456E-2,2.5E-1,3E0,6E0,2E0,3.7E1,2.2E1,3.6E1,-1.1348911E-1,-5.566123E-2,-6.0910713E-2,2.0293867E-2,-1.1574941E-1,-1.4970495E-1,-3.0727444E-2,-1.1531257E-1,2.1256253E-2,5.1034052E-2,7.147174E-2,9.265127E-2,8.655789E-2,1.13093354E-1,1.2342527E-1,1.432012E-1],"split_indices":[3,0,3,2,2,2,3,0,0,0,0,3,2,2,2,0,0,0,0,0,0,0,0,0,0,0,0,0,0,0,0],"split_type":[0,0,0,0,0,0,0,0,0,0,0,0,0,0,0,0,0,0,0,0,0,0,0,0,0,0,0,0,0,0,0],"sum_hessian":[1.3938225E6,7.262712E5,6.675513E5,3.5446838E5,3.718028E5,2.8931234E5,3.7823897E5,2.2468692E5,1.29781445E5,2.654748E5,1.06328E5,1.4748494E5,1.418274E5,2.1719552E5,1.6104344E5,2.0141658E4,2.0454525E5,3.4978707E4,9.480274E4,4.7611934E4,2.1786288E5,4.4347457E4,6.1980547E4,6.981059E4,7.767434E4,9.076931E4,5.1058094E4,9.175626E4,1.2543925E5,7.402553E4,8.7017914E4],"tree_param":{"num_deleted":"0","num_feature":"4","num_nodes":"31","size_leaf_vector":"1"}},{"base_weights":[2.8694954E-4,-7.5750405E-1,8.278814E-1,-3.788433E-1,-1.1897771E0,5.9100145E-1,1.0288038E0,-6.33245E-1,-5.6125946E-2,-1.3259172E0,-6.74167E-1,4.5527947E-1,7.0925915E-1,9.158322E-1,1.1710616E0,-7.854684E-2,-4.798662E-2,-5.6864817E-2,9.773176E-3,-1.24598816E-1,-1.4774811E-1,-2.1499343E-2,-1.01913154E-1,5.026449E-2,-5.620939E-3,4.0854942E-2,7.6404E-2,6.893673E-2,9.889058E-2,1.0311457E-1,1.2408068E-1],"categories":[],"categories_nodes":[],"categories_segments":[],"categories_sizes":[],"default_left":[0,0,0,0,0,0,0,0,0,0,0,0,0,0,0,0,0,0,0,0,0,0,0,0,0,0,0,0,0,0,0],"id":3,"left_children":[1,3,5,7,9,11,13,15,17,19,21,23,25,27,29,-1,-1,-1,-1,-1,-1,-1,-1,-1,-1,-1,-1,-1,-1,-1,-1],"loss_changes":[8.6265625E5,1.1753309E5,3.1292062E4,3.1424578E4,2.3534688E4,4.8427266E3,5.7160625E3,4.996883E3,1.3305125E4,3.2114688E3,1.1093736E4,3.40392E3,2.6558984E3,3.2806719E3,1.5352812E3,0E0,0E0,0E0,0E0,0E0,0E0,0E0,0E0,0E0,0E0,0E0,0E0,0E0,0E0,0E0,0E0],"parents":[2147483647,0,0,1,1,2,2,3,3,4,4,5,5,6,6,7,7,8,8,9,9,10,10,11,11,12,12,13,13,14,14],"right_children":[2,4,6,8,10,12,14,16,18,20,22,24,26,28,30,-1,-1,-1,-1,-1,-1,-1,-1,-1,-1,-1,-1,-1,-1,-1,-1],"split_conditions":[2.4271845E-3,2.3333333E0,2.2E1,1.3E1,1.4E1,1.3E1,4.4E1,9E0,2.0754717E-1,5.6666665E0,7E0,3.5E0,3.846154E-2,5.5555556E-2,8.571429E-2,-7.854684E-2,-4.798662E-2,-5.6864817E-2,9.773176E-3,-1.24598816E-1,-1.4774811E-1,-2.1499343E-2,-1.01913154E-1,5.026449E-2,-5.620939E-3,4.0854942E-2,7.6404E-2,6.893673E-2,9.889058E-2,1.0311457E-1,1.2408068E-1],"split_indices":[1,0,2,2,2,2,2,2,0,0,0,0,1,1,1,0,0,0,0,0,0,0,0,0,0,0,0,0,0,0,0],"split_type":[0,0,0,0,0,0,0,0,0,0,0,0,0,0,0,0,0,0,0,0,0,0,0,0,0,0,0,0,0,0,0],"sum_hessian":[1.3755301E6,7.180469E5,6.574832E5,3.8276012E5,3.3528678E5,3.0174328E5,3.557399E5,2.1403389E5,1.6872623E5,2.6524953E5,7.003724E4,1.4049961E5,1.6124366E5,1.9828372E5,1.574562E5,1.0741949E5,1.0661439E5,3.8955883E4,1.2977036E5,1.7367112E5,9.157842E4,3.0045738E4,3.9991504E4,1.2859166E5,1.1907959E4,2.4848809E4,1.3639484E5,4.83746E4,1.4990911E5,5.2384086E4,1.0507212E5],"tree_param":{"num_deleted":"0","num_feature":"4","num_nodes":"31","size_leaf_vector":"1"}},{"base_weights":[-1.7725985E-6,-6.9184446E-1,7.5586635E-1,-3.5743207E-1,-1.130593E0,5.427939E-1,9.556589E-1,-6.5306795E-1,-1.097844E-1,-1.2411802E0,-5.5393624E-1,4.2309174E-1,6.6750157E-1,8.6134523E-1,1.1024132E0,-5.6245383E-2,-9.7994454E-2,-6.407787E-2,1.1177097E-3,-1.304451E-1,-1.0333859E-1,-1.2166969E-2,-8.9090206E-2,4.658788E-2,-6.6139473E-4,4.7140155E-2,7.430082E-2,6.89007E-2,9.507591E-2,9.72398E-2,1.1680513E-1],"categories":[],"categories_nodes":[],"categories_segments":[],"categories_sizes":[],"default_left":[0,0,0,0,0,0,0,0,0,0,0,0,0,0,0,0,0,0,0,0,0,0,0,0,0,0,0,0,0,0,0],"id":4,"left_children":[1,3,5,7,9,11,13,15,17,19,21,23,25,27,29,-1,-1,-1,-1,-1,-1,-1,-1,-1,-1,-1,-1,-1,-1,-1,-1],"loss_changes":[7.08594E5,1.0380169E5,2.7565656E4,2.939314E4,1.9513125E4,4.677492E3,4.6245E3,5.4199844E3,1.4032201E4,3.3743438E3,7.172339E3,2.939748E3,2.2720547E3,3.1343281E3,1.1145781E3,0E0,0E0,0E0,0E0,0E0,0E0,0E0,0E0,0E0,0E0,0E0,0E0,0E0,0E0,0E0,0E0],"parents":[2147483647,0,0,1,1,2,2,3,3,4,4,5,5,6,6,7,7,8,8,9,9,10,10,11,11,12,12,13,13,14,14],"right_children":[2,4,6,8,10,12,14,16,18,20,22,24,26,28,30,-1,-1,-1,-1,-1,-1,-1,-1,-1,-1,-1,-1,-1,-1,-1,-1],"split_conditions":[2.4271845E-3,2.6666667E0,2.3E1,1.1E1,1.6E1,1.4E1,4.9E1,1.7368422E0,1.7307693E-1,1.1E1,8E0,3.5E0,6.896552E-2,8.571429E-2,8.571429E-2,-5.6245383E-2,-9.7994454E-2,-6.407787E-2,1.1177097E-3,-1.304451E-1,-1.0333859E-1,-1.2166969E-2,-8.9090206E-2,4.658788E-2,-6.6139473E-4,4.7140155E-2,7.430082E-2,6.89007E-2,9.507591E-2,9.72398E-2,1.1680513E-1],"split_indices":[1,0,2,2,2,2,2,0,0,2,0,0,1,1,1,0,0,0,0,0,0,0,0,0,0,0,0,0,0,0,0],"split_type":[0,0,0,0,0,0,0,0,0,0,0,0,0,0,0,0,0,0,0,0,0,0,0,0,0,0,0,0,0,0,0],"sum_hessian":[1.3550129E6,7.074694E5,6.475435E5,4.014713E5,3.059981E5,3.1335944E5,3.341841E5,1.8300392E5,2.1846739E5,2.5675773E5,4.924035E4,1.5989069E5,1.5346873E5,2.034445E5,1.3073958E5,1.4328603E5,3.971789E4,4.0532844E4,1.7793453E5,1.9682255E5,5.9935184E4,2.1570559E4,2.7669791E4,1.4541155E5,1.4479135E4,4.266631E4,1.1080243E5,6.949908E4,1.3394542E5,4.386603E4,8.687355E4],"tree_param":{"num_deleted":"0","num_feature":"4","num_nodes":"31","size_leaf_vector":"1"}},{"base_weights":[1.8869853E-4,-6.3764316E-1,6.923687E-1,-3.409744E-1,-1.0724037E0,4.4328305E-1,9.6964455E-1,-5.428251E-1,-1.1541733E-2,-1.16268E0,-4.6454042E-1,2.177506E-1,5.718521E-1,8.6719024E-1,1.1608607E0,-7.077468E-2,-3.8089555E-2,-5.9944846E-2,1.0518303E-2,-1.2965445E-1,-1.0320834E-1,-3.1819597E-3,-8.174419E-2,1.0655203E-2,4.708078E-2,4.7726367E-2,7.133127E-2,7.932864E-2,9.769314E-2,1.0959365E-1,1.2515222E-1],"categories":[],"categories_nodes":[],"categories_segments":[],"categories_sizes":[],"default_left":[0,0,0,0,0,0,0,0,0,0,0,0,0,0,0,0,0,0,0,0,0,0,0,0,0,0,0,0,0,0,0],"id":5,"left_children":[1,3,5,7,9,11,13,15,17,19,21,23,25,27,29,-1,-1,-1,-1,-1,-1,-1,-1,-1,-1,-1,-1,-1,-1,-1,-1],"loss_changes":[5.8764844E5,8.934616E4,4.4085844E4,2.7379902E4,1.541775E4,9.750195E3,5.9168438E3,6.818086E3,1.0735346E4,4.2754062E3,5.5483706E3,3.4355737E3,2.865336E3,1.5944375E3,6.189219E2,0E0,0E0,0E0,0E0,0E0,0E0,0E0,0E0,0E0,0E0,0E0,0E0,0E0,0E0,0E0,0E0],"parents":[2147483647,0,0,1,1,2,2,3,3,4,4,5,5,6,6,7,7,8,8,9,9,10,10,11,11,12,12,13,13,14,14],"right_children":[2,4,6,8,10,12,14,16,18,20,22,24,26,28,30,-1,-1,-1,-1,-1,-1,-1,-1,-1,-1,-1,-1,-1,-1,-1,-1],"split_conditions":[1E0,3E0,5E0,1.4E1,1.8E1,1.5E1,1.3E1,9E0,1.7307693E-1,9E0,9E0,3E0,3E0,3.3E1,2.2E1,-7.077468E-2,-3.8089555E-2,-5.9944846E-2,1.0518303E-2,-1.2965445E-1,-1.0320834E-1,-3.1819597E-3,-8.174419E-2,1.0655203E-2,4.708078E-2,4.7726367E-2,7.133127E-2,7.932864E-2,9.769314E-2,1.0959365E-1,1.2515222E-1],"split_indices":[3,0,3,2,2,2,3,2,0,2,0,3,3,2,3,0,0,0,0,0,0,0,0,0,0,0,0,0,0,0,0],"split_type":[0,0,0,0,0,0,0,0,0,0,0,0,0,0,0,0,0,0,0,0,0,0,0,0,0,0,0,0,0,0,0],"sum_hessian":[1.3310416E6,6.92716E5,6.383257E5,4.1175044E5,2.8096556E5,3.3625753E5,3.0206816E5,2.5531353E5,1.5643692E5,2.4463314E5,3.633242E4,1.2209111E5,2.1416642E5,1.9668769E5,1.0538045E5,1.2648645E5,1.2882708E5,2.5913658E4,1.3052326E5,1.2080074E5,1.2383239E5,1.6321009E4,2.0011412E4,8.482061E4,3.7270504E4,1.2834932E5,8.58171E4,1.1754003E5,7.9147664E4,6.1413992E4,4.396646E4],"tree_param":{"num_deleted":"0","num_feature":"4","num_nodes":"31","size_leaf_vector":"1"}},{"base_weights":[4.2556273E-4,-5.8824116E-1,6.373166E-1,-2.9874104E-1,-9.8960924E-1,4.0682882E-1,9.000625E-1,-4.797008E-1,-1.2848015E-2,-1.0954087E0,-4.6588895E-1,2.5061506E-1,5.631262E-1,8.0026394E-1,1.0887876E0,-6.9215365E-2,-3.763436E-2,-4.2687844E-2,1.4358272E-2,-1.1599741E-1,-8.888143E-2,7.3343455E-3,-6.8649866E-2,1.5090448E-2,4.6812337E-2,4.141819E-2,6.3201E-2,7.279818E-2,9.0830006E-2,1.0412387E-1,1.21193185E-1],"categories":[],"categories_nodes":[],"categories_segments":[],"categories_sizes":[],"default_left":[0,0,0,0,0,0,0,0,0,0,0,0,0,0,0,0,0,0,0,0,0,0,0,0,0,0,0,0,0,0,0],"id":6,"left_children":[1,3,5,7,9,11,13,15,17,19,21,23,25,27,29,-1,-1,-1,-1,-1,-1,-1,-1,-1,-1,-1,-1,-1,-1,-1,-1],"loss_changes":[4.9007872E5,7.893192E4,3.8023016E4,2.041725E4,1.5771906E4,8.166121E3,5.5251562E3,5.3066094E3,9.907721E3,3.15775E3,5.6912773E3,3.627872E3,1.7150625E3,1.4980469E3,5.9296875E2,0E0,0E0,0E0,0E0,0E0,0E0,0E0,0E0,0E0,0E0,0E0,0E0,0E0,0E0,0E0,0E0],"parents":[2147483647,0,0,1,1,2,2,3,3,4,4,5,5,6,6,7,7,8,8,9,9,10,10,11,11,12,12,13,13,14,14],"right_children":[2,4,6,8,10,12,14,16,18,20,22,24,26,28,30,-1,-1,-1,-1,-1,-1,-1,-1,-1,-1,-1,-1,-1,-1,-1,-1],"split_conditions":[1E0,2.6666667E0,5E0,1.4E1,1.6E1,1.9E1,1.3E1,8E0,2.65625E-1,1.1E1,5.3333335E0,3E0,2E0,3.3E1,2.7E1,-6.9215365E-2,-3.763436E-2,-4.2687844E-2,1.4358272E-2,-1.1599741E-1,-8.888143E-2,7.3343455E-3,-6.8649866E-2,1.5090448E-2,4.6812337E-2,4.141819E-2,6.3201E-2,7.279818E-2,9.0830006E-2,1.0412387E-1,1.21193185E-1],"split_indices":[3,0,3,2,2,2,3,2,0,2,0,3,3,2,3,0,0,0,0,0,0,0,0,0,0,0,0,0,0,0,0],"split_type":[0,0,0,0,0,0,0,0,0,0,0,0,0,0,0,0,0,0,0,0,0,0,0,0,0,0,0,0,0,0,0],"sum_hessian":[1.3071655E6,6.793005E5,6.2786494E5,3.9464872E5,2.8465178E5,3.3446544E5,2.933995E5,2.4167602E5,1.529727E5,2.3681125E5,4.784054E4,1.6727875E5,1.671867E5,1.9191784E5,1.01481664E5,7.909302E4,1.62583E5,4.19474E4,1.1102531E5,1.8042098E5,5.6390273E4,1.3890038E4,3.39505E4,1.14699625E5,5.257913E4,5.287172E4,1.1431498E5,1.1499052E5,7.692733E4,7.32194E4,2.8262264E4],"tree_param":{"num_deleted":"0","num_feature":"4","num_nodes":"31","size_leaf_vector":"1"}},{"base_weights":[-6.6999346E-5,-5.4116344E-1,5.8523834E-1,-2.8091285E-1,-9.48125E-1,3.9505324E-1,8.762054E-1,-7.2697926E-1,-2.2999585E-1,-8.688275E-1,-1.0459288E0,2.7463505E-1,5.536916E-1,7.920349E-1,1.0541233E0,-8.7098114E-2,-5.8513016E-2,-1.3692381E-2,-5.0438453E-2,-7.8812346E-2,-8.9847215E-2,-1.07515715E-1,-9.8381124E-2,3.2539207E-2,-1.7403727E-2,5.9217025E-2,2.4674078E-2,7.307595E-2,8.5708715E-2,1.0128528E-1,1.1622303E-1],"categories":[],"categories_nodes":[],"categories_segments":[],"categories_sizes":[],"default_left":[0,0,0,0,0,0,0,0,0,0,0,0,0,0,0,0,0,0,0,0,0,0,0,0,0,0,0,0,0,0,0],"id":7,"left_children":[1,3,5,7,9,11,13,15,17,19,21,23,25,27,29,-1,-1,-1,-1,-1,-1,-1,-1,-1,-1,-1,-1,-1,-1,-1,-1],"loss_changes":[4.055427E5,7.047125E4,3.4039E4,9.217514E3,2.0119375E3,7.10584E3,3.6402656E3,8.488086E2,9.302531E3,3.4221875E2,2.0992188E2,4.815872E3,1.8957266E3,6.573203E2,3.4720312E2,0E0,0E0,0E0,0E0,0E0,0E0,0E0,0E0,0E0,0E0,0E0,0E0,0E0,0E0,0E0,0E0],"parents":[2147483647,0,0,1,1,2,2,3,3,4,4,5,5,6,6,7,7,8,8,9,9,10,10,11,11,12,12,13,13,14,14],"right_children":[2,4,6,8,10,12,14,16,18,20,22,24,26,28,30,-1,-1,-1,-1,-1,-1,-1,-1,-1,-1,-1,-1,-1,-1,-1,-1],"split_conditions":[1E0,3E0,6E0,1.2068965E-1,6E0,3E0,1.5E1,7.5E-2,1.5E0,3.5E0,9.5E0,4.1666666E-1,8.75E-1,9E0,3E1,-8.7098114E-2,-5.8513016E-2,-1.3692381E-2,-5.0438453E-2,-7.8812346E-2,-8.9847215E-2,-1.07515715E-1,-9.8381124E-2,3.2539207E-2,-1.7403727E-2,5.9217025E-2,2.4674078E-2,7.307595E-2,8.5708715E-2,1.0128528E-1,1.1622303E-1],"split_indices":[3,0,3,0,0,3,3,0,0,0,0,1,1,3,3,0,0,0,0,0,0,0,0,0,0,0,0,0,0,0,0],"split_type":[0,0,0,0,0,0,0,0,0,0,0,0,0,0,0,0,0,0,0,0,0,0,0,0,0,0,0,0,0,0,0],"sum_hessian":[1.2804975E6,6.653772E5,6.151203E5,4.0584338E5,2.5953381E5,3.7198297E5,2.431373E5,4.1578145E4,3.6426525E5,1.4333245E5,1.1620136E5,2.1146686E5,1.6051612E5,1.6505673E5,7.808057E4,2.062996E4,2.0948182E4,2.7200366E5,9.226157E4,3.85129E4,1.04819555E5,7.900887E4,3.7192492E4,1.8997572E5,2.1491133E4,1.4263484E5,1.788128E4,8.5002016E4,8.005471E4,5.6515742E4,2.1564826E4],"tree_param":{"num_deleted":"0","num_feature":"4","num_nodes":"31","size_leaf_vector":"1"}},{"base_weights":[-7.3470466E-4,-4.9840254E-1,5.374144E-1,-2.570076E-1,-8.886825E-1,3.5885364E-1,8.174131E-1,-5.2843785E-1,-8.736202E-2,-1.033264E0,-4.8349875E-1,9.887623E-2,4.3984914E-1,7.3371154E-1,9.969158E-1,-4.0461823E-2,-7.660545E-2,-5.4467138E-2,1.3552167E-4,-9.44869E-2,-1.1870714E-1,-9.809832E-3,-7.005506E-2,-8.431847E-3,2.240282E-2,3.405863E-2,5.580274E-2,6.659924E-2,8.367254E-2,9.428664E-2,1.1060858E-1],"categories":[],"categories_nodes":[],"categories_segments":[],"categories_sizes":[],"default_left":[0,0,0,0,0,0,0,0,0,0,0,0,0,0,0,0,0,0,0,0,0,0,0,0,0,0,0,0,0,0,0],"id":8,"left_children":[1,3,5,7,9,11,13,15,17,19,21,23,25,27,29,-1,-1,-1,-1,-1,-1,-1,-1,-1,-1,-1,-1,-1,-1,-1,-1],"loss_changes":[3.3630878E5,6.146367E4,3.0164094E4,1.856092E4,1.46049375E4,7.7572734E3,3.5290469E3,4.5610547E3,1.0063869E4,2.4970781E3,5.4848896E3,2.006398E3,3.2948008E3,1.1171641E3,4.3977344E2,0E0,0E0,0E0,0E0,0E0,0E0,0E0,0E0,0E0,0E0,0E0,0E0,0E0,0E0,0E0,0E0],"parents":[2147483647,0,0,1,1,2,2,3,3,4,4,5,5,6,6,7,7,8,8,9,9,10,10,11,11,12,12,13,13,14,14],"right_children":[2,4,6,8,10,12,14,16,18,20,22,24,26,28,30,-1,-1,-1,-1,-1,-1,-1,-1,-1,-1,-1,-1,-1,-1,-1,-1],"split_conditions":[1E0,3E0,6E0,1E1,1.3E1,1.2E1,1.5E1,1.375E0,1.6666667E-1,5.6666665E0,6.5E0,2E0,3E0,3.5E1,6.8E1,-4.0461823E-2,-7.660545E-2,-5.4467138E-2,1.3552167E-4,-9.44869E-2,-1.1870714E-1,-9.809832E-3,-7.005506E-2,-8.431847E-3,2.240282E-2,3.405863E-2,5.580274E-2,6.659924E-2,8.367254E-2,9.428664E-2,1.1060858E-1],"split_indices":[3,0,3,2,2,2,3,0,0,0,0,3,3,2,2,0,0,0,0,0,0,0,0,0,0,0,0,0,0,0,0],"split_type":[0,0,0,0,0,0,0,0,0,0,0,0,0,0,0,0,0,0,0,0,0,0,0,0,0,0,0,0,0,0,0],"sum_hessian":[1.2557275E6,6.524016E5,6.033259E5,4.03087E5,2.4931462E5,3.683952E5,2.3493066E5,1.5503361E5,2.4805339E5,1.8374677E5,6.556785E4,8.750997E4,2.8088522E5,1.6022388E5,7.470677E4,1.019245E5,5.3109105E4,4.0302355E4,2.0775103E5,1.1669041E5,6.705636E4,2.3623348E4,4.1944504E4,3.551874E4,5.1991227E4,1.5266197E5,1.2822325E5,9.6677516E4,6.3546367E4,4.997438E4,2.4732393E4],"tree_param":{"num_deleted":"0","num_feature":"4","num_nodes":"31","size_leaf_vector":"1"}},{"base_weights":[-2.9911841E-3,-4.5810124E-1,4.929631E-1,-2.3073028E-1,-8.417785E-1,3.5195625E-1,7.00598E-1,-3.852691E-1,5.4763235E-2,-1.0058578E0,-4.9065152E-1,2.032892E-1,4.2334598E-1,6.299493E-1,8.406128E-1,-5.2798282E-2,-2.6497323E-2,-2.2175547E-2,1.9752724E-2,-9.157489E-2,-1.1821941E-1,-1.2581646E-2,-6.727462E-2,2.6340893E-2,-1.2104552E-2,-3.7189946E-3,4.4633977E-2,5.37952E-2,7.097195E-2,7.543556E-2,8.9677215E-2],"categories":[],"categories_nodes":[],"categories_segments":[],"categories_sizes":[],"default_left":[0,0,0,0,0,0,0,0,0,0,0,0,0,0,0,0,0,0,0,0,0,0,0,0,0,0,0,0,0,0,0],"id":9,"left_children":[1,3,5,7,9,11,13,15,17,19,21,23,25,27,29,-1,-1,-1,-1,-1,-1,-1,-1,-1,-1,-1,-1,-1,-1,-1,-1],"loss_changes":[2.774842E5,5.5925688E4,1.7223484E4,1.775981E4,1.3742734E4,3.7183516E3,2.3530312E3,4.4835156E3,5.580925E3,2.582125E3,5.04709E3,2.216333E3,2.5064883E3,1.1601445E3,3.8583203E2,0E0,0E0,0E0,0E0,0E0,0E0,0E0,0E0,0E0,0E0,0E0,0E0,0E0,0E0,0E0,0E0],"parents":[2147483647,0,0,1,1,2,2,3,3,4,4,5,5,6,6,7,7,8,8,9,9,10,10,11,11,12,12,13,13,14,14],"right_children":[2,4,6,8,10,12,14,16,18,20,22,24,26,28,30,-1,-1,-1,-1,-1,-1,-1,-1,-1,-1,-1,-1,-1,-1,-1,-1],"split_conditions":[2.4271845E-3,3E0,2.8E1,1.5E1,1.2E1,1.2E1,6E1,9E0,3.3333334E-1,5.6666665E0,6E0,2.3333333E0,1.5748031E-2,1.3043478E-1,1.0344828E-1,-5.2798282E-2,-2.6497323E-2,-2.2175547E-2,1.9752724E-2,-9.157489E-2,-1.1821941E-1,-1.2581646E-2,-6.727462E-2,2.6340893E-2,-1.2104552E-2,-3.7189946E-3,4.4633977E-2,5.37952E-2,7.097195E-2,7.543556E-2,8.9677215E-2],"split_indices":[1,0,2,2,2,2,2,2,0,0,0,0,1,1,1,0,0,0,0,0,0,0,0,0,0,0,0,0,0,0,0],"split_type":[0,0,0,0,0,0,0,0,0,0,0,0,0,0,0,0,0,0,0,0,0,0,0,0,0,0,0,0,0,0,0],"sum_hessian":[1.2293609E6,6.4107844E5,5.8828244E5,4.0253428E5,2.3854419E5,3.503554E5,2.3792706E5,2.6116452E5,1.4136977E5,1.6257302E5,7.597117E4,1.1366182E5,2.3669358E5,1.5813884E5,7.978822E4,1.194504E5,1.4171411E5,4.813562E4,9.323414E4,1.0759663E5,5.4976383E4,2.5294385E4,5.067679E4,9.5887914E4,1.7773902E4,1.1255693E4,2.2543788E5,7.344455E4,8.4694305E4,3.1468676E4,4.8319547E4],"tree_param":{"num_deleted":"0","num_feature":"4","num_nodes":"31","size_leaf_vector":"1"}},{"base_weights":[-3.179743E-3,-4.2174932E-1,4.5200747E-1,-1.6558364E-1,-7.2924846E-1,2.961638E-1,6.2488467E-1,-2.723234E-1,1.0299784E-1,-9.0034956E-1,-3.6425382E-1,1.5850735E-1,3.5737365E-1,5.55611E-1,7.809768E-1,-7.1832165E-2,-2.256743E-2,-2.103514E-2,2.5400875E-2,-8.141358E-2,-1.1393984E-1,-5.5862763E-3,-6.281185E-2,1.9808196E-2,-4.0667508E-2,3.831883E-2,-4.7925846E-3,4.595829E-2,6.388276E-2,7.127123E-2,8.620615E-2],"categories":[],"categories_nodes":[],"categories_segments":[],"categories_sizes":[],"default_left":[0,0,0,0,0,0,0,0,0,0,0,0,0,0,0,0,0,0,0,0,0,0,0,0,0,0,0,0,0,0,0],"id":10,"left_children":[1,3,5,7,9,11,13,15,17,19,21,23,25,27,29,-1,-1,-1,-1,-1,-1,-1,-1,-1,-1,-1,-1,-1,-1,-1,-1],"loss_changes":[2.2978666E5,4.949146E4,1.5565594E4,9.826408E3,1.783189E4,2.5601504E3,2.9613438E3,5.1030195E3,4.612745E3,4.0056406E3,7.415927E3,2.0919329E3,2.2005781E3,1.5157617E3,4.6540625E2,0E0,0E0,0E0,0E0,0E0,0E0,0E0,0E0,0E0,0E0,0E0,0E0,0E0,0E0,0E0,0E0],"parents":[2147483647,0,0,1,1,2,2,3,3,4,4,5,5,6,6,7,7,8,8,9,9,10,10,11,11,12,12,13,13,14,14],"right_children":[2,4,6,8,10,12,14,16,18,20,22,24,26,28,30,-1,-1,-1,-1,-1,-1,-1,-1,-1,-1,-1,-1,-1,-1,-1,-1],"split_conditions":[2.4271845E-3,2E0,2.4E1,1.8E1,1.2E1,1.1E1,5.7E1,1.010101E-1,3.125E-1,5.6666665E0,6E0,3.5E0,6.5E0,1.3043478E-1,1.7948718E-1,-7.1832165E-2,-2.256743E-2,-2.103514E-2,2.5400875E-2,-8.141358E-2,-1.1393984E-1,-5.5862763E-3,-6.281185E-2,1.9808196E-2,-4.0667508E-2,3.831883E-2,-4.7925846E-3,4.595829E-2,6.388276E-2,7.127123E-2,8.620615E-2],"split_indices":[1,0,2,2,2,2,2,0,0,0,0,0,0,1,1,0,0,0,0,0,0,0,0,0,0,0,0,0,0,0,0],"split_type":[0,0,0,0,0,0,0,0,0,0,0,0,0,0,0,0,0,0,0,0,0,0,0,0,0,0,0,0,0,0,0],"sum_hessian":[1.2060529E6,6.2829825E5,5.777546E5,3.427598E5,2.8553847E5,3.0384766E5,2.7390697E5,2.4528038E5,9.7479445E4,1.944046E5,9.113387E4,9.3523586E4,2.1032406E5,1.8971577E5,8.419121E4,2.3224402E4,2.2205597E5,3.170039E4,6.5779055E4,1.4287914E5,5.1525445E4,4.2022E4,4.911187E4,8.740412E4,6.1194697E3,1.9773014E5,1.2593928E4,8.8080914E4,1.0163484E5,4.5714453E4,3.847676E4],"tree_param":{"num_deleted":"0","num_feature":"4","num_nodes":"31","size_leaf_vector":"1"}},{"base_weights":[9.311738E-4,-3.8689506E-1,4.18182E-1,-1.86638E-1,-7.478678E-1,2.7181795E-1,7.24401E-1,-4.113248E-1,-5.1384114E-2,-8.483746E-1,-1.6715759E-1,1.5367405E-1,4.0530032E-1,6.4440256E-1,8.904574E-1,-3.0185148E-2,-6.306871E-2,-4.8747793E-2,1.3072358E-3,-1.0101946E-1,-7.015201E-2,1.5913207E-2,-4.6923317E-2,5.54867E-3,3.1908255E-2,3.0163933E-2,4.7873855E-2,6.0160197E-2,7.4700154E-2,8.506954E-2,1.02285944E-1],"categories":[],"categories_nodes":[],"categories_segments":[],"categories_sizes":[],"default_left":[0,0,0,0,0,0,0,0,0,0,0,0,0,0,0,0,0,0,0,0,0,0,0,0,0,0,0,0,0,0,0],"id":11,"left_children":[1,3,5,7,9,11,13,15,17,19,21,23,25,27,29,-1,-1,-1,-1,-1,-1,-1,-1,-1,-1,-1,-1,-1,-1,-1,-1],"loss_changes":[1.91732E5,4.4389555E4,2.5581344E4,1.2002773E4,1.278843E4,6.090127E3,2.4514844E3,3.5638613E3,6.9302773E3,4.4380156E3,3.1865613E3,3.3271934E3,1.3802012E3,5.4659766E2,3.150547E2,0E0,0E0,0E0,0E0,0E0,0E0,0E0,0E0,0E0,0E0,0E0,0E0,0E0,0E0,0E0,0E0],"parents":[2147483647,0,0,1,1,2,2,3,3,4,4,5,5,6,6,7,7,8,8,9,9,10,10,11,11,12,12,13,13,14,14],"right_children":[2,4,6,8,10,12,14,16,18,20,22,24,26,28,30,-1,-1,-1,-1,-1,-1,-1,-1,-1,-1,-1,-1,-1,-1,-1,-1],"split_conditions":[1E0,3E0,7E0,1E1,1.8E1,3E0,1.6E1,1.375E0,1.4035088E-1,9E0,9E0,2.2E1,1.9E1,4.5E1,9.1E1,-3.0185148E-2,-6.306871E-2,-4.8747793E-2,1.3072358E-3,-1.0101946E-1,-7.015201E-2,1.5913207E-2,-4.6923317E-2,5.54867E-3,3.1908255E-2,3.0163933E-2,4.7873855E-2,6.0160197E-2,7.4700154E-2,8.506954E-2,1.02285944E-1],"split_indices":[3,0,3,2,2,3,3,0,0,2,0,2,2,2,2,0,0,0,0,0,0,0,0,0,0,0,0,0,0,0,0],"split_type":[0,0,0,0,0,0,0,0,0,0,0,0,0,0,0,0,0,0,0,0,0,0,0,0,0,0,0,0,0,0,0],"sum_hessian":[1.1848395E6,6.14072E5,5.707675E5,3.9496084E5,2.1911116E5,3.8618422E5,1.8458325E5,1.4841255E5,2.465483E5,1.8678308E5,3.2328068E4,2.0486361E5,1.8132062E5,1.2457402E5,6.0009234E4,9.9005805E4,4.940674E4,3.1747482E4,2.1480081E5,8.886086E4,9.792223E4,1.554138E4,1.6786688E4,1.285544E5,7.630921E4,7.519086E4,1.0612976E5,8.790857E4,3.6665453E4,4.6155555E4,1.385368E4],"tree_param":{"num_deleted":"0","num_feature":"4","num_nodes":"31","size_leaf_vector":"1"}},{"base_weights":[-1.7743409E-3,-3.5100037E-1,3.919291E-1,-1.6771355E-1,-7.048219E-1,2.7453262E-1,5.7725954E-1,-2.8776896E-1,6.894883E-2,-8.747149E-1,-3.7494352E-1,1.3274184E-1,3.283299E-1,5.2135664E-1,7.357865E-1,-4.178984E-2,-1.9185666E-2,-1.2913619E-2,1.8492127E-2,-7.754841E-2,-1.0788115E-1,-5.063817E-2,1.2645469E-3,2.0228919E-2,-1.5600383E-2,3.586187E-2,2.8807211E-3,5.37634E-2,1.2129947E-2,6.770148E-2,8.112198E-2],"categories":[],"categories_nodes":[],"categories_segments":[],"categories_sizes":[],"default_left":[0,0,0,0,0,0,0,0,0,0,0,0,0,0,0,0,0,0,0,0,0,0,0,0,0,0,0,0,0,0,0],"id":12,"left_children":[1,3,5,7,9,11,13,15,17,19,21,23,25,27,29,-1,-1,-1,-1,-1,-1,-1,-1,-1,-1,-1,-1,-1,-1,-1,-1],"loss_changes":[1.597862E5,3.9939203E4,1.1885531E4,1.1527109E4,1.1777977E4,2.5510664E3,1.8770391E3,3.359336E3,3.1367358E3,2.808586E3,3.6396729E3,1.8473531E3,2.1995547E3,1.01983984E3,2.4429102E2,0E0,0E0,0E0,0E0,0E0,0E0,0E0,0E0,0E0,0E0,0E0,0E0,0E0,0E0,0E0,0E0],"parents":[2147483647,0,0,1,1,2,2,3,3,4,4,5,5,6,6,7,7,8,8,9,9,10,10,11,11,12,12,13,13,14,14],"right_children":[2,4,6,8,10,12,14,16,18,20,22,24,26,28,30,-1,-1,-1,-1,-1,-1,-1,-1,-1,-1,-1,-1,-1,-1,-1,-1],"split_conditions":[9.708738E-3,3E0,2.8E1,1.6E1,1.2E1,1.1E1,6.8E1,9E0,3.3333334E-1,5.6666665E0,2.4E1,1.8E0,5.5E0,1.4E1,1.04E2,-4.178984E-2,-1.9185666E-2,-1.2913619E-2,1.8492127E-2,-7.754841E-2,-1.0788115E-1,-5.063817E-2,1.2645469E-3,2.0228919E-2,-1.5600383E-2,3.586187E-2,2.8807211E-3,5.37634E-2,1.2129947E-2,6.770148E-2,8.112198E-2],"split_indices":[1,0,2,2,2,2,2,2,0,0,2,0,0,0,2,0,0,0,0,0,0,0,0,0,0,0,0,0,0,0,0],"split_type":[0,0,0,0,0,0,0,0,0,0,0,0,0,0,0,0,0,0,0,0,0,0,0,0,0,0,0,0,0,0,0],"sum_hessian":[1.1621514E6,6.158634E5,5.46288E5,4.0570253E5,2.101608E5,3.344409E5,2.1184712E5,2.691609E5,1.3654164E5,1.3871734E5,7.144347E4,9.199023E4,2.4245067E5,1.5662073E5,5.522639E4,1.1420685E5,1.5495405E5,5.042088E4,8.6120766E4,9.334044E4,4.53769E4,5.3350934E4,1.8092533E4,7.413448E4,1.7855748E4,2.2018462E5,2.2266047E4,1.5049703E5,6.1237E3,3.1046982E4,2.4179408E4],"tree_param":{"num_deleted":"0","num_feature":"4","num_nodes":"31","size_leaf_vector":"1"}},{"base_weights":[-1.8299074E-4,-3.2218033E-1,3.56239E-1,-1.5125802E-1,-6.610377E-1,2.4987304E-1,5.383982E-1,-2.521184E-1,8.1035644E-2,-8.308671E-1,-3.4304005E-1,1.5518004E-1,3.2207328E-1,4.841901E-1,6.8585604E-1,-6.76788E-2,-2.2570945E-2,-1.1456359E-2,2.026092E-2,-7.299747E-2,-1.043153E-1,-2.0588186E-2,-7.447237E-2,1.874241E-2,-1.5249617E-2,3.5046145E-2,-4.2478824E-3,4.1674934E-2,5.6382008E-2,6.1766863E-2,7.6276146E-2],"categories":[],"categories_nodes":[],"categories_segments":[],"categories_sizes":[],"default_left":[0,0,0,0,0,0,0,0,0,0,0,0,0,0,0,0,0,0,0,0,0,0,0,0,0,0,0,0,0,0,0],"id":13,"left_children":[1,3,5,7,9,11,13,15,17,19,21,23,25,27,29,-1,-1,-1,-1,-1,-1,-1,-1,-1,-1,-1,-1,-1,-1,-1,-1],"loss_changes":[1.3103746E5,3.4742363E4,1.0499797E4,9.341996E3,1.0861406E4,2.3391074E3,1.596582E3,3.1178457E3,2.8705747E3,2.8072344E3,3.8575088E3,1.4684543E3,2.008998E3,7.842656E2,2.8112305E2,0E0,0E0,0E0,0E0,0E0,0E0,0E0,0E0,0E0,0E0,0E0,0E0,0E0,0E0,0E0,0E0],"parents":[2147483647,0,0,1,1,2,2,3,3,4,4,5,5,6,6,7,7,8,8,9,9,10,10,11,11,12,12,13,13,14,14],"right_children":[2,4,6,8,10,12,14,16,18,20,22,24,26,28,30,-1,-1,-1,-1,-1,-1,-1,-1,-1,-1,-1,-1,-1,-1,-1,-1],"split_conditions":[7.0921984E-3,3E0,2.9E1,1.7E1,1.2E1,1.4E1,6.8E1,8.173077E-2,3.611111E-1,5.6666665E0,1.2E1,3.5E0,7E0,1.7391305E-1,1.7391305E-1,-6.76788E-2,-2.2570945E-2,-1.1456359E-2,2.026092E-2,-7.299747E-2,-1.043153E-1,-2.0588186E-2,-7.447237E-2,1.874241E-2,-1.5249617E-2,3.5046145E-2,-4.2478824E-3,4.1674934E-2,5.6382008E-2,6.1766863E-2,7.6276146E-2],"split_indices":[1,0,2,2,2,2,2,0,0,0,0,0,0,1,1,0,0,0,0,0,0,0,0,0,0,0,0,0,0,0,0],"split_type":[0,0,0,0,0,0,0,0,0,0,0,0,0,0,0,0,0,0,0,0,0,0,0,0,0,0,0,0,0,0,0],"sum_hessian":[1.1417682E6,5.998522E5,5.41916E5,3.9873072E5,2.0112147E5,3.42138E5,1.9977802E5,2.7801734E5,1.2071338E5,1.311031E5,7.0018375E4,1.4801481E5,1.9412317E5,1.4608055E5,5.3697473E4,1.6275425E4,2.617419E5,4.6269934E4,7.444345E4,8.8870414E4,4.2232688E4,5.2196844E4,1.7821533E4,1.3397481E5,1.4040002E4,1.8009869E5,1.4024498E4,7.90972E4,6.698334E4,2.846674E4,2.523073E4],"tree_param":{"num_deleted":"0","num_feature":"4","num_nodes":"31","size_leaf_vector":"1"}},{"base_weights":[4.438179E-4,-2.4652664E-1,4.047219E-1,-9.685296E-2,-5.895279E-1,2.7915722E-1,6.475092E-1,-5.1699114E-1,-6.625066E-2,-6.2742925E-1,-2.0607156E-1,1.9874647E-1,3.6500078E-1,5.685971E-1,8.0596983E-1,-5.981433E-2,-4.252248E-2,-2.2895676E-3,-2.7643485E-2,-5.459669E-2,-7.338095E-2,-1.1966426E-3,-4.303198E-2,2.3757413E-2,-8.822651E-3,3.879666E-2,1.6435113E-2,5.1758457E-2,6.2103536E-2,7.474856E-2,9.0137914E-2],"categories":[],"categories_nodes":[],"categories_segments":[],"categories_sizes":[],"default_left":[0,0,0,0,0,0,0,0,0,0,0,0,0,0,0,0,0,0,0,0,0,0,0,0,0,0,0,0,0,0,0],"id":14,"left_children":[1,3,5,7,9,11,13,15,17,19,21,23,25,27,29,-1,-1,-1,-1,-1,-1,-1,-1,-1,-1,-1,-1,-1,-1,-1,-1],"loss_changes":[1.1218394E5,3.5807938E4,1.2989453E4,6.2433706E3,3.0794688E3,1.9385371E3,1.8157734E3,2.4526465E2,4.124585E3,1.6707109E3,8.2970636E2,1.6158408E3,6.258711E2,2.590586E2,2.687422E2,0E0,0E0,0E0,0E0,0E0,0E0,0E0,0E0,0E0,0E0,0E0,0E0,0E0,0E0,0E0,0E0],"parents":[2147483647,0,0,1,1,2,2,3,3,4,4,5,5,6,6,7,7,8,8,9,9,10,10,11,11,12,12,13,13,14,14],"right_children":[2,4,6,8,10,12,14,16,18,20,22,24,26,28,30,-1,-1,-1,-1,-1,-1,-1,-1,-1,-1,-1,-1,-1,-1,-1,-1],"split_conditions":[2E0,3E0,8E0,1.010101E-1,8.8495575E-3,4E0,1.7E1,6.837607E-2,1.75E0,6E0,3.5E-1,6.25E-1,1.3E0,1.1E1,2.8E1,-5.981433E-2,-4.252248E-2,-2.2895676E-3,-2.7643485E-2,-5.459669E-2,-7.338095E-2,-1.1966426E-3,-4.303198E-2,2.3757413E-2,-8.822651E-3,3.879666E-2,1.6435113E-2,5.1758457E-2,6.2103536E-2,7.474856E-2,9.0137914E-2],"split_indices":[3,0,3,0,1,3,3,0,0,0,1,1,1,3,3,0,0,0,0,0,0,0,0,0,0,0,0,0,0,0,0],"split_type":[0,0,0,0,0,0,0,0,0,0,0,0,0,0,0,0,0,0,0,0,0,0,0,0,0,0,0,0,0,0,0],"sum_hessian":[1.1235818E6,6.9749044E5,4.2609134E5,4.8559512E5,2.1189534E5,2.8084578E5,1.4524555E5,3.296763E4,4.526275E5,1.9283467E5,1.9060674E4,1.450133E5,1.358325E5,9.69632E4,4.8282348E4,1.7492707E4,1.547492E4,3.752295E5,7.739799E4,1.09210875E5,8.36238E4,1.0217579E4,8.843095E3,1.2773132E5,1.7281969E4,1.2188134E5,1.3951148E4,4.9155297E4,4.7807906E4,2.9939055E4,1.8343293E4],"tree_param":{"num_deleted":"0","num_feature":"4","num_nodes":"31","size_leaf_vector":"1"}},{"base_weights":[-1.8387297E-3,-2.2717369E-1,3.7024942E-1,-9.149894E-2,-5.4739016E-1,2.525692E-1,6.0353833E-1,-2.6666886E-1,2.7735397E-2,-7.51955E-1,-2.3307855E-1,2.0086083E-1,3.7209475E-1,5.3256464E-1,7.7252436E-1,-1.9390045E-2,-5.2969098E-2,-3.3922072E-2,7.1917907E-3,-6.465055E-2,-9.9289656E-2,3.7467051E-3,-3.976818E-2,1.3514096E-2,2.8262544E-2,3.8671494E-2,3.4414355E-3,5.081923E-2,6.6234216E-2,7.3329665E-2,9.224103E-2],"categories":[],"categories_nodes":[],"categories_segments":[],"categories_sizes":[],"default_left":[0,0,0,0,0,0,0,0,0,0,0,0,0,0,0,0,0,0,0,0,0,0,0,0,0,0,0,0,0,0,0],"id":15,"left_children":[1,3,5,7,9,11,13,15,17,19,21,23,25,27,29,-1,-1,-1,-1,-1,-1,-1,-1,-1,-1,-1,-1,-1,-1,-1,-1],"loss_changes":[9.265248E4,2.9901188E4,1.1442496E4,1.0096972E4,1.3169492E4,1.7122227E3,1.6757305E3,3.7472334E3,4.663517E3,3.151711E3,3.596162E3,1.0391509E3,4.1301562E2,3.109668E2,2.4234766E2,0E0,0E0,0E0,0E0,0E0,0E0,0E0,0E0,0E0,0E0,0E0,0E0,0E0,0E0,0E0,0E0],"parents":[2147483647,0,0,1,1,2,2,3,3,4,4,5,5,6,6,7,7,8,8,9,9,10,10,11,11,12,12,13,13,14,14],"right_children":[2,4,6,8,10,12,14,16,18,20,22,24,26,28,30,-1,-1,-1,-1,-1,-1,-1,-1,-1,-1,-1,-1,-1,-1,-1,-1],"split_conditions":[2E0,3E0,8E0,1.1E1,1.2E1,3.1E1,1.8E1,1.7368422E0,1.4035088E-1,5.6666665E0,6E0,4E0,1.4E1,6.8E1,3.8E1,-1.9390045E-2,-5.2969098E-2,-3.3922072E-2,7.1917907E-3,-6.465055E-2,-9.9289656E-2,3.7467051E-3,-3.976818E-2,1.3514096E-2,2.8262544E-2,3.8671494E-2,3.4414355E-3,5.081923E-2,6.6234216E-2,7.3329665E-2,9.224103E-2],"split_indices":[3,0,3,2,2,2,3,0,0,0,0,3,0,2,3,0,0,0,0,0,0,0,0,0,0,0,0,0,0,0,0],"split_type":[0,0,0,0,0,0,0,0,0,0,0,0,0,0,0,0,0,0,0,0,0,0,0,0,0,0,0,0,0,0,0],"sum_hessian":[1.1050498E6,6.882493E5,4.168004E5,4.8342494E5,2.0482439E5,2.770483E5,1.3975211E5,1.9578761E5,2.8763734E5,1.24072414E5,8.0751984E4,1.9338847E5,8.365982E4,9.842007E4,4.133203E4,1.5336028E5,4.242733E4,3.0909877E4,2.5672745E5,8.630445E4,3.776796E4,3.054625E4,5.0205734E4,1.0721503E5,8.6173445E4,8.018787E4,3.471954E3,8.286319E4,1.5556882E4,3.2763219E4,8.5688125E3],"tree_param":{"num_deleted":"0","num_feature":"4","num_nodes":"31","size_leaf_vector":"1"}},{"base_weights":[-1.1108693E-3,-2.0807207E-1,3.423599E-1,-8.317323E-2,-5.115987E-1,2.2106104E-1,5.3676844E-1,-1.6407013E-1,1.2735967E-1,-6.3587356E-1,-9.570081E-3,1.5358114E-1,2.99829E-1,4.6662492E-1,7.208212E-1,-2.9650796E-2,-9.011835E-3,-7.461931E-3,2.3068056E-2,-8.332605E-2,-4.8109017E-2,2.2118198E-2,-2.7475229E-2,1.790425E-2,-2.516037E-3,3.152769E-2,-4.2859404E-3,4.193315E-2,5.395157E-2,6.820745E-2,8.919759E-2],"categories":[],"categories_nodes":[],"categories_segments":[],"categories_sizes":[],"default_left":[0,0,0,0,0,0,0,0,0,0,0,0,0,0,0,0,0,0,0,0,0,0,0,0,0,0,0,0,0,0,0],"id":16,"left_children":[1,3,5,7,9,11,13,15,17,19,21,23,25,27,29,-1,-1,-1,-1,-1,-1,-1,-1,-1,-1,-1,-1,-1,-1,-1,-1],"loss_changes":[7.738705E4,2.575314E4,9.652535E3,8.196931E3,1.2355762E4,1.3397314E3,2.0300352E3,3.4051953E3,2.788015E3,4.8496406E3,2.4047446E3,6.178533E2,6.1569727E2,3.9233008E2,2.8717773E2,0E0,0E0,0E0,0E0,0E0,0E0,0E0,0E0,0E0,0E0,0E0,0E0,0E0,0E0,0E0,0E0],"parents":[2147483647,0,0,1,1,2,2,3,3,4,4,5,5,6,6,7,7,8,8,9,9,10,10,11,11,12,12,13,13,14,14],"right_children":[2,4,6,8,10,12,14,16,18,20,22,24,26,28,30,-1,-1,-1,-1,-1,-1,-1,-1,-1,-1,-1,-1,-1,-1,-1,-1],"split_conditions":[2E0,3E0,7E0,1.9E1,1.8E1,2.2E1,1.7E1,9E0,4E-1,9E0,9E0,3.5E0,1.2E1,1.1E1,3.8E1,-2.9650796E-2,-9.011835E-3,-7.461931E-3,2.3068056E-2,-8.332605E-2,-4.8109017E-2,2.2118198E-2,-2.7475229E-2,1.790425E-2,-2.516037E-3,3.152769E-2,-4.2859404E-3,4.193315E-2,5.395157E-2,6.820745E-2,8.919759E-2],"split_indices":[3,0,3,2,2,2,3,2,0,2,0,0,0,3,3,0,0,0,0,0,0,0,0,0,0,0,0,0,0,0,0],"split_type":[0,0,0,0,0,0,0,0,0,0,0,0,0,0,0,0,0,0,0,0,0,0,0,0,0,0,0,0,0,0,0],"sum_hessian":[1.0886512E6,6.79321E5,4.093302E5,4.812795E5,1.9804148E5,2.5206156E5,1.5726864E5,3.476831E5,1.335964E5,1.5874472E5,3.9296777E4,1.3575998E5,1.1630158E5,1.1387413E5,4.3394508E4,1.2457779E5,2.2310531E5,4.521236E4,8.838405E4,6.976841E4,8.8976305E4,2.1012562E4,1.8284213E4,1.1883252E5,1.6927457E4,1.1128509E5,5.016487E3,6.906787E4,4.4806266E4,3.5388168E4,8.006339E3],"tree_param":{"num_deleted":"0","num_feature":"4","num_nodes":"31","size_leaf_vector":"1"}},{"base_weights":[-7.989849E-5,-2.3603942E-1,2.5253057E-1,-4.1776866E-1,-7.011425E-2,1.3243154E-1,4.7651353E-1,-5.330878E-1,-3.3246556E-1,-1.5404534E-1,1.3396485E-1,5.34149E-2,2.1434388E-1,4.0264294E-1,6.599836E-1,-5.9112787E-2,-4.893444E-2,-3.594025E-2,-2.615489E-2,-1.887712E-2,-9.57063E-3,6.6887173E-3,1.648529E-2,-5.127058E-4,1.5887782E-2,1.752348E-2,3.2173406E-2,3.69103E-2,4.9791835E-2,6.0204115E-2,7.8182705E-2],"categories":[],"categories_nodes":[],"categories_segments":[],"categories_sizes":[],"default_left":[0,0,0,0,0,0,0,0,0,0,0,0,0,0,0,0,0,0,0,0,0,0,0,0,0,0,0,0,0,0,0],"id":17,"left_children":[1,3,5,7,9,11,13,15,17,19,21,23,25,27,29,-1,-1,-1,-1,-1,-1,-1,-1,-1,-1,-1,-1,-1,-1,-1,-1],"loss_changes":[6.4011996E4,1.6743008E4,1.395198E4,2.6067422E3,4.9716357E3,2.1852637E3,2.453293E3,2.857832E2,2.9090234E2,4.1663965E2,1.7524072E2,1.0610206E3,6.9618994E2,4.1226367E2,3.6639648E2,0E0,0E0,0E0,0E0,0E0,0E0,0E0,0E0,0E0,0E0,0E0,0E0,0E0,0E0,0E0,0E0],"parents":[2147483647,0,0,1,1,2,2,3,3,4,4,5,5,6,6,7,7,8,8,9,9,10,10,11,11,12,12,13,13,14,14],"right_children":[2,4,6,8,10,12,14,16,18,20,22,24,26,28,30,-1,-1,-1,-1,-1,-1,-1,-1,-1,-1,-1,-1,-1,-1,-1,-1],"split_conditions":[1E0,1.1E1,6E0,8E0,2.3E1,1.9E1,1.5E1,7E0,1E1,1.6E1,2.8E1,3E0,4.4E1,4.5E1,2.7E1,-5.9112787E-2,-4.893444E-2,-3.594025E-2,-2.615489E-2,-1.887712E-2,-9.57063E-3,6.6887173E-3,1.648529E-2,-5.127058E-4,1.5887782E-2,1.752348E-2,3.2173406E-2,3.69103E-2,4.9791835E-2,6.0204115E-2,7.8182705E-2],"split_indices":[3,2,3,2,2,2,3,2,2,2,2,3,2,2,3,0,0,0,0,0,0,0,0,0,0,0,0,0,0,0,0],"split_type":[0,0,0,0,0,0,0,0,0,0,0,0,0,0,0,0,0,0,0,0,0,0,0,0,0,0,0,0,0,0,0],"sum_hessian":[1.0739195E6,5.5525994E5,5.1865956E5,2.650084E5,2.902515E5,3.3762666E5,1.810329E5,1.1267742E5,1.5233097E5,2.0566742E5,8.4584086E4,1.7185175E5,1.6577489E5,1.2906902E5,5.196389E4,4.841986E4,6.4257566E4,1.1039468E5,4.1936297E4,1.2892413E5,7.67433E4,2.6669885E4,5.79142E4,1.1050944E5,6.1342305E4,1.2152196E5,4.4252934E4,9.546663E4,3.360239E4,3.5220684E4,1.6743207E4],"tree_param":{"num_deleted":"0","num_feature":"4","num_nodes":"31","size_leaf_vector":"1"}},{"base_weights":[-9.777687E-4,-1.7308727E-1,2.884547E-1,-7.210128E-2,-4.9249682E-1,2.0140713E-1,5.181893E-1,-4.0612748E-1,-4.7329236E-2,-5.3077126E-1,-1.5051234E-1,1.2952799E-1,2.7084765E-1,4.464697E-1,6.635341E-1,-5.147543E-2,-3.0712947E-2,-2.916328E-4,-2.3967503E-2,-4.4980288E-2,-6.0992826E-2,-1.3122684E-3,-2.7534688E-2,1.626799E-2,-9.669592E-3,2.8629074E-2,6.4389887E-3,4.5800995E-2,1.8309752E-2,6.2508546E-2,8.180495E-2],"categories":[],"categories_nodes":[],"categories_segments":[],"categories_sizes":[],"default_left":[0,0,0,0,0,0,0,0,0,0,0,0,0,0,0,0,0,0,0,0,0,0,0,0,0,0,0,0,0,0,0],"id":18,"left_children":[1,3,5,7,9,11,13,15,17,19,21,23,25,27,29,-1,-1,-1,-1,-1,-1,-1,-1,-1,-1,-1,-1,-1,-1,-1,-1],"loss_changes":[5.2778246E4,2.1431232E4,7.9008516E3,4.1770547E3,2.0890078E3,1.4301113E3,1.1313945E3,3.7464502E2,4.0146968E3,9.196953E2,2.7554462E2,1.0559285E3,4.646328E2,2.2086914E2,2.1258203E2,0E0,0E0,0E0,0E0,0E0,0E0,0E0,0E0,0E0,0E0,0E0,0E0,0E0,0E0,0E0,0E0],"parents":[2147483647,0,0,1,1,2,2,3,3,4,4,5,5,6,6,7,7,8,8,9,9,10,10,11,11,12,12,13,13,14,14],"right_children":[2,4,6,8,10,12,14,16,18,20,22,24,26,28,30,-1,-1,-1,-1,-1,-1,-1,-1,-1,-1,-1,-1,-1,-1,-1,-1],"split_conditions":[2E0,3.5E0,9E0,1.0769231E-1,8.8495575E-3,4E0,1.8E1,6.837607E-2,2E0,6E0,3.5E-1,5.3571427E-1,1.8E0,1E1,3.8E1,-5.147543E-2,-3.0712947E-2,-2.916328E-4,-2.3967503E-2,-4.4980288E-2,-6.0992826E-2,-1.3122684E-3,-2.7534688E-2,1.626799E-2,-9.669592E-3,2.8629074E-2,6.4389887E-3,4.5800995E-2,1.8309752E-2,6.2508546E-2,8.180495E-2],"split_indices":[3,0,3,0,1,3,3,0,0,0,1,1,1,0,3,0,0,0,0,0,0,0,0,0,0,0,0,0,0,0,0],"split_type":[0,0,0,0,0,0,0,0,0,0,0,0,0,0,0,0,0,0,0,0,0,0,0,0,0,0,0,0,0,0,0],"sum_hessian":[1.0595026E6,6.644132E5,3.950894E5,5.0481103E5,1.5960214E5,2.865254E5,1.0856401E5,3.4851953E4,4.699591E5,1.4353711E5,1.6065041E4,1.4079195E5,1.4573344E5,7.2696414E4,3.586759E4,1.6615828E4,1.8236127E4,3.818016E5,8.815749E4,7.095997E4,7.257713E4,7.6484546E3,8.416586E3,1.2279699E5,1.7994965E4,1.3559083E5,1.0142604E4,6.964407E4,3.0523489E3,2.8724895E4,7.1426934E3],"tree_param":{"num_deleted":"0","num_feature":"4","num_nodes":"31","size_leaf_vector":"1"}},{"base_weights":[-1.4256412E-3,-2.0057821E-1,2.1231355E-1,-9.7087994E-2,-5.020088E-1,1.2457179E-1,4.3292043E-1,-4.2200646E-1,-7.350675E-2,-4.2051002E-1,-5.830611E-1,5.750793E-2,2.0529819E-1,3.63528E-1,5.989548E-1,-5.1551104E-2,-3.151874E-2,-1.0195223E-3,-2.2550514E-2,-5.8945443E-2,-3.6832597E-2,-7.037028E-2,-5.5944543E-2,8.815327E-3,-1.8862983E-2,2.2626838E-2,3.0435945E-4,3.7527338E-2,1.2657762E-2,5.442373E-2,7.247205E-2],"categories":[],"categories_nodes":[],"categories_segments":[],"categories_sizes":[],"default_left":[0,0,0,0,0,0,0,0,0,0,0,0,0,0,0,0,0,0,0,0,0,0,0,0,0,0,0,0,0,0,0],"id":19,"left_children":[1,3,5,7,9,11,13,15,17,19,21,23,25,27,29,-1,-1,-1,-1,-1,-1,-1,-1,-1,-1,-1,-1,-1,-1,-1,-1],"loss_changes":[4.4583477E4,1.6913646E4,9.778596E3,3.0924814E3,9.151211E2,1.9567432E3,1.6560371E3,2.7261768E2,3.6213054E3,6.089834E2,1.9754297E2,1.4891982E3,6.9562354E2,2.8211035E2,2.9117676E2,0E0,0E0,0E0,0E0,0E0,0E0,0E0,0E0,0E0,0E0,0E0,0E0,0E0,0E0,0E0,0E0],"parents":[2147483647,0,0,1,1,2,2,3,3,4,4,5,5,6,6,7,7,8,8,9,9,10,10,11,11,12,12,13,13,14,14],"right_children":[2,4,6,8,10,12,14,16,18,20,22,24,26,28,30,-1,-1,-1,-1,-1,-1,-1,-1,-1,-1,-1,-1,-1,-1,-1,-1],"split_conditions":[1E0,3.5E0,7E0,1.010101E-1,6E0,3E0,1.6E1,6.837607E-2,1.4E0,3.6666667E0,6.1666665E0,3.5E-1,1.125E0,9E0,2.9E1,-5.1551104E-2,-3.151874E-2,-1.0195223E-3,-2.2550514E-2,-5.8945443E-2,-3.6832597E-2,-7.037028E-2,-5.5944543E-2,8.815327E-3,-1.8862983E-2,2.2626838E-2,3.0435945E-4,3.7527338E-2,1.2657762E-2,5.442373E-2,7.247205E-2],"split_indices":[3,0,3,0,0,3,3,0,0,0,0,1,1,0,3,0,0,0,0,0,0,0,0,0,0,0,0,0,0,0,0],"split_type":[0,0,0,0,0,0,0,0,0,0,0,0,0,0,0,0,0,0,0,0,0,0,0,0,0,0,0,0,0,0,0],"sum_hessian":[1.047377E6,5.421894E5,5.0518762E5,4.0361684E5,1.3857252E5,3.6143572E5,1.437519E5,2.7309602E4,3.7630725E5,6.909903E4,6.947349E4,1.9742533E5,1.6401039E5,1.01383055E5,4.2368844E4,1.4560325E4,1.2749276E4,2.6565547E5,1.1065177E5,1.630424E4,5.279479E4,1.1368444E4,5.8105047E4,1.7556703E5,2.1858299E4,1.4860281E5,1.5407577E4,9.65944E4,4.788659E3,2.9527498E4,1.2841346E4],"tree_param":{"num_deleted":"0","num_feature":"4","num_nodes":"31","size_leaf_vector":"1"}},{"base_weights":[-3.5068174E-4,-1.748262E-1,2.0263933E-1,-3.5503468E-1,-2.4720797E-2,1.434743E-1,3.7490568E-1,-1.3748184E-1,-5.982759E-1,6.274755E-3,-5.1649344E-1,1.4299847E-2,1.7464446E-1,3.3975318E-1,5.249824E-1,-3.957692E-2,-1.0292998E-2,-5.0823607E-2,-9.109546E-2,-7.588563E-3,1.6777098E-2,-7.899289E-2,-1.4706651E-2,4.7795232E-3,-2.2211121E-2,1.9784538E-2,4.4196402E-4,3.553606E-2,7.2345934E-3,5.434798E-2,1.5671294E-2],"categories":[],"categories_nodes":[],"categories_segments":[],"categories_sizes":[],"default_left":[0,0,0,0,0,0,0,0,0,0,0,0,0,0,0,0,0,0,0,0,0,0,0,0,0,0,0,0,0,0,0],"id":20,"left_children":[1,3,5,7,9,11,13,15,17,19,21,23,25,27,29,-1,-1,-1,-1,-1,-1,-1,-1,-1,-1,-1,-1,-1,-1,-1,-1],"loss_changes":[3.665213E4,1.5054236E4,4.875375E3,1.3383082E4,4.628086E3,1.433647E3,6.449668E2,1.1913821E3,3.3611406E3,3.7898352E3,1.8183745E3,5.481257E2,1.1328623E3,4.1350488E2,1.5799512E2,0E0,0E0,0E0,0E0,0E0,0E0,0E0,0E0,0E0,0E0,0E0,0E0,0E0,0E0,0E0,0E0],"parents":[2147483647,0,0,1,1,2,2,3,3,4,4,5,5,6,6,7,7,8,8,9,9,10,10,11,11,12,12,13,13,14,14],"right_children":[2,4,6,8,10,12,14,16,18,20,22,24,26,28,30,-1,-1,-1,-1,-1,-1,-1,-1,-1,-1,-1,-1,-1,-1,-1,-1],"split_conditions":[1.2658228E-2,1.1E1,3.6E1,1.8571428E0,1.1E1,1E1,9.1E1,1.2068965E-1,5.3333335E0,2.2E1,2.3E1,2.4117646E0,4.5555553E0,1.2E1,2.2E1,-3.957692E-2,-1.0292998E-2,-5.0823607E-2,-9.109546E-2,-7.588563E-3,1.6777098E-2,-7.899289E-2,-1.4706651E-2,4.7795232E-3,-2.2211121E-2,1.9784538E-2,4.4196402E-4,3.553606E-2,7.2345934E-3,5.434798E-2,1.5671294E-2],"split_indices":[1,2,2,0,0,2,2,0,0,2,2,0,0,0,0,0,0,0,0,0,0,0,0,0,0,0,0,0,0,0,0],"split_type":[0,0,0,0,0,0,0,0,0,0,0,0,0,0,0,0,0,0,0,0,0,0,0,0,0,0,0,0,0,0,0],"sum_hessian":[1.0348781E6,5.565275E5,4.7835062E5,2.5290366E5,3.0362388E5,3.5606247E5,1.22288164E5,1.335021E5,1.1940155E5,2.8562256E5,1.8001293E4,6.921698E4,2.868455E5,9.908317E4,2.320499E4,1.5750568E4,1.1775153E5,9.2707766E4,2.6693781E4,1.8931172E5,9.631085E4,1.0343959E4,7.6573345E3,6.062785E4,8.589127E3,2.5243898E5,3.4406516E4,9.3618734E4,5.4644385E3,2.209474E4,1.1102506E3],"tree_param":{"num_deleted":"0","num_feature":"4","num_nodes":"31","size_leaf_vector":"1"}},{"base_weights":[-1.8771325E-3,-1.6143008E-1,1.8330216E-1,-7.599716E-2,-4.377634E-1,1.23154946E-1,3.331403E-1,-3.282406E-1,-1.9001272E-2,-6.8496895E-1,-1.8424658E-1,6.6025585E-2,1.8151541E-1,3.022665E-1,4.8969027E-1,-1.1407558E-2,-5.646315E-2,-2.4040943E-2,2.4975336E-3,-5.6365013E-2,-8.843714E-2,-3.2713827E-2,1.5526039E-2,8.161515E-3,-1.38618965E-2,2.0167321E-2,-8.645339E-3,3.1426176E-2,2.9946418E-4,5.392254E-2,3.6077E-2],"categories":[],"categories_nodes":[],"categories_segments":[],"categories_sizes":[],"default_left":[0,0,0,0,0,0,0,0,0,0,0,0,0,0,0,0,0,0,0,0,0,0,0,0,0,0,0,0,0,0,0],"id":21,"left_children":[1,3,5,7,9,11,13,15,17,19,21,23,25,27,29,-1,-1,-1,-1,-1,-1,-1,-1,-1,-1,-1,-1,-1,-1,-1,-1],"loss_changes":[3.022352E4,1.2972262E4,4.2668203E3,6.034312E3,8.132293E3,1.1263667E3,6.552998E2,3.9163838E3,3.3335527E3,1.5888555E3,3.1080503E3,5.446636E2,9.027251E2,4.066377E2,1.4245312E2,0E0,0E0,0E0,0E0,0E0,0E0,0E0,0E0,0E0,0E0,0E0,0E0,0E0,0E0,0E0,0E0],"parents":[2147483647,0,0,1,1,2,2,3,3,4,4,5,5,6,6,7,7,8,8,9,9,10,10,11,11,12,12,13,13,14,14],"right_children":[2,4,6,8,10,12,14,16,18,20,22,24,26,28,30,-1,-1,-1,-1,-1,-1,-1,-1,-1,-1,-1,-1,-1,-1,-1,-1],"split_conditions":[1.2658228E-2,3.5E0,3.3E1,8E0,1.1E1,1.6E1,9.1E1,1.1836735E0,1.6666667E-1,5.3333335E0,2.1E1,4.5E0,8E0,1.6E1,3.6666667E0,-1.1407558E-2,-5.646315E-2,-2.4040943E-2,2.4975336E-3,-5.6365013E-2,-8.843714E-2,-3.2713827E-2,1.5526039E-2,8.161515E-3,-1.38618965E-2,2.0167321E-2,-8.645339E-3,3.1426176E-2,2.9946418E-4,5.392254E-2,3.6077E-2],"split_indices":[1,0,2,2,2,2,2,0,0,0,2,0,0,0,0,0,0,0,0,0,0,0,0,0,0,0,0,0,0,0,0],"split_type":[0,0,0,0,0,0,0,0,0,0,0,0,0,0,0,0,0,0,0,0,0,0,0,0,0,0,0,0,0,0,0],"sum_hessian":[1.0229323E6,5.4948706E5,4.7344525E5,4.197239E5,1.29763164E5,3.3783512E5,1.3561012E5,7.7358414E4,3.423655E5,6.569851E4,6.4064652E4,1.7071928E5,1.6711583E5,1.1327389E5,2.2336242E4,4.0588023E4,3.677039E4,5.6732258E4,2.8563325E5,4.0849203E4,2.4849309E4,4.508804E4,1.8976615E4,1.5863525E5,1.2084034E4,1.5542438E5,1.1691459E4,1.0890862E5,4.3652744E3,1.6133911E4,6.2023306E3],"tree_param":{"num_deleted":"0","num_feature":"4","num_nodes":"31","size_leaf_vector":"1"}},{"base_weights":[-1.8122735E-3,-1.0469798E-1,2.4963596E-1,-2.9922405E-1,-7.988874E-3,1.8112195E-1,4.55953E-1,-1.3668133E-1,-5.7244885E-1,3.882893E-2,-2.6047882E-1,1.1990842E-1,2.3174842E-1,3.9705828E-1,6.01812E-1,-9.3933605E-3,-2.965408E-2,-4.8112333E-2,-8.668002E-2,-1.5500667E-2,8.357278E-3,-3.6436763E-2,5.587827E-3,-1.0807416E-2,1.3218636E-2,2.0456595E-2,3.1083897E-2,3.710198E-2,5.3110775E-2,5.5342585E-2,7.553761E-2],"categories":[],"categories_nodes":[],"categories_segments":[],"categories_sizes":[],"default_left":[0,0,0,0,0,0,0,0,0,0,0,0,0,0,0,0,0,0,0,0,0,0,0,0,0,0,0,0,0,0,0],"id":22,"left_children":[1,3,5,7,9,11,13,15,17,19,21,23,25,27,29,-1,-1,-1,-1,-1,-1,-1,-1,-1,-1,-1,-1,-1,-1,-1,-1],"loss_changes":[2.6190562E4,1.35151875E4,4.155174E3,1.0594609E4,5.6724126E3,6.83854E2,6.2927246E2,1.02213696E3,2.391629E3,3.5108105E3,2.4669233E3,2.796372E2,2.5960303E2,1.8202441E2,1.5618799E2,0E0,0E0,0E0,0E0,0E0,0E0,0E0,0E0,0E0,0E0,0E0,0E0,0E0,0E0,0E0,0E0],"parents":[2147483647,0,0,1,1,2,2,3,3,4,4,5,5,6,6,7,7,8,8,9,9,10,10,11,11,12,12,13,13,14,14],"right_children":[2,4,6,8,10,12,14,16,18,20,22,24,26,28,30,-1,-1,-1,-1,-1,-1,-1,-1,-1,-1,-1,-1,-1,-1,-1,-1],"split_conditions":[3E0,1E1,1.1E1,2.3333333E0,5E0,5E0,2.2E1,1.375E0,4.5555553E0,2.3529412E-1,2.4E1,1.8045112E-1,4.1E1,7.4E1,4.1E1,-9.3933605E-3,-2.965408E-2,-4.8112333E-2,-8.668002E-2,-1.5500667E-2,8.357278E-3,-3.6436763E-2,5.587827E-3,-1.0807416E-2,1.3218636E-2,2.0456595E-2,3.1083897E-2,3.710198E-2,5.3110775E-2,5.5342585E-2,7.553761E-2],"split_indices":[3,2,3,0,0,3,3,0,0,0,2,0,2,2,3,0,0,0,0,0,0,0,0,0,0,0,0,0,0,0,0],"split_type":[0,0,0,0,0,0,0,0,0,0,0,0,0,0,0,0,0,0,0,0,0,0,0,0,0,0,0,0,0,0,0],"sum_hessian":[1.0123724E6,7.184166E5,2.9395575E5,2.3856056E5,4.7985606E5,2.2067544E5,7.328031E4,1.4957762E5,8.898293E4,4.0479756E5,7.505851E4,9.9894414E4,1.2078102E5,5.2204844E4,2.1075465E4,1.1801976E5,3.155787E4,6.791442E4,2.1068512E4,7.591639E4,3.2888116E5,5.650321E4,1.8555297E4,5.104467E3,9.4789945E4,8.989037E4,3.0890658E4,4.371683E4,8.488016E3,1.6029402E4,5.046063E3],"tree_param":{"num_deleted":"0","num_feature":"4","num_nodes":"31","size_leaf_vector":"1"}},{"base_weights":[1.9751485E-4,-1.12153634E-1,1.9204004E-1,-2.6076996E-1,-4.5070415E-3,1.3051325E-1,4.080759E-1,-3.6130518E-1,-1.9090274E-1,-6.161472E-2,1.282437E-1,8.663196E-2,2.0345627E-1,3.48086E-1,5.48955E-1,-3.8274687E-2,-1.5890688E-2,-2.1229316E-2,-4.639204E-4,-8.024612E-3,2.3870834E-3,1.4013916E-2,-8.818593E-3,1.0597593E-2,-8.932252E-3,2.1610377E-2,-1.6868372E-3,3.243289E-2,4.6223465E-2,5.146879E-2,7.511072E-2],"categories":[],"categories_nodes":[],"categories_segments":[],"categories_sizes":[],"default_left":[0,0,0,0,0,0,0,0,0,0,0,0,0,0,0,0,0,0,0,0,0,0,0,0,0,0,0,0,0,0,0],"id":23,"left_children":[1,3,5,7,9,11,13,15,17,19,21,23,25,27,29,-1,-1,-1,-1,-1,-1,-1,-1,-1,-1,-1,-1,-1,-1,-1,-1],"loss_changes":[2.1629291E4,1.0124682E4,4.9264336E3,1.8672598E3,2.782462E3,9.2335596E2,6.941504E2,4.7296973E2,6.2491846E2,4.0873804E2,2.8423633E2,6.130862E2,3.019463E2,1.561167E2,1.6956982E2,0E0,0E0,0E0,0E0,0E0,0E0,0E0,0E0,0E0,0E0,0E0,0E0,0E0,0E0,0E0,0E0],"parents":[2147483647,0,0,1,1,2,2,3,3,4,4,5,5,6,6,7,7,8,8,9,9,10,10,11,11,12,12,13,13,14,14],"right_children":[2,4,6,8,10,12,14,16,18,20,22,24,26,28,30,-1,-1,-1,-1,-1,-1,-1,-1,-1,-1,-1,-1,-1,-1,-1,-1],"split_conditions":[2E0,1.1E1,1E1,8E0,2.4E1,5E0,2E1,1.8181818E-2,1.923077E-2,1.3333334E-2,6.896552E-2,7.619048E-1,2.5E0,6.8E1,1.27E2,-3.8274687E-2,-1.5890688E-2,-2.1229316E-2,-4.639204E-4,-8.024612E-3,2.3870834E-3,1.4013916E-2,-8.818593E-3,1.0597593E-2,-8.932252E-3,2.1610377E-2,-1.6868372E-3,3.243289E-2,4.6223465E-2,5.146879E-2,7.511072E-2],"split_indices":[3,2,3,2,2,3,3,1,1,1,1,1,1,2,2,0,0,0,0,0,0,0,0,0,0,0,0,0,0,0,0],"split_type":[0,0,0,0,0,0,0,0,0,0,0,0,0,0,0,0,0,0,0,0,0,0,0,0,0,0,0,0,0,0,0],"sum_hessian":[1.00350375E6,6.3286906E5,3.7063466E5,2.6584434E5,3.6702475E5,2.8847803E5,8.215664E4,1.0899797E5,1.5684636E5,2.5662744E5,1.1039732E5,1.801219E5,1.0835612E5,5.7622844E4,2.4533799E4,9.855622E4,1.0441745E4,1.4068952E5,1.6156848E4,2.1070481E5,4.592262E4,1.04646086E5,5.7512373E3,1.622815E5,1.78404E4,1.0247374E5,5.882378E3,4.76993E4,9.923542E3,2.098085E4,3.5529497E3],"tree_param":{"num_deleted":"0","num_feature":"4","num_nodes":"31","size_leaf_vector":"1"}},{"base_weights":[-1.9787511E-4,-8.541526E-2,2.111632E-1,-2.480312E-1,-6.5743756E-3,1.5626985E-1,4.160857E-1,-2.794577E-1,-7.739223E-2,-6.882472E-2,9.0012446E-2,1.1274894E-1,2.1662503E-1,3.7540218E-1,5.911175E-1,-3.500277E-2,-2.1106778E-2,-4.043917E-3,-2.5628133E-2,-9.994868E-3,2.7500319E-3,3.9823456E-3,1.42120095E-2,1.2626344E-2,-7.710529E-3,2.302213E-2,2.2227035E-3,3.552285E-2,5.1950105E-2,5.122308E-2,7.003521E-2],"categories":[],"categories_nodes":[],"categories_segments":[],"categories_sizes":[],"default_left":[0,0,0,0,0,0,0,0,0,0,0,0,0,0,0,0,0,0,0,0,0,0,0,0,0,0,0,0,0,0,0],"id":24,"left_children":[1,3,5,7,9,11,13,15,17,19,21,23,25,27,29,-1,-1,-1,-1,-1,-1,-1,-1,-1,-1,-1,-1,-1,-1,-1,-1],"loss_changes":[1.7914867E4,9.087834E3,3.2147676E3,1.2411494E3,2.8703242E3,5.920669E2,4.2974414E2,9.432383E2,2.3795422E2,8.703069E2,4.8928955E2,3.3605835E2,2.4960645E2,1.4224658E2,9.775586E1,0E0,0E0,0E0,0E0,0E0,0E0,0E0,0E0,0E0,0E0,0E0,0E0,0E0,0E0,0E0,0E0],"parents":[2147483647,0,0,1,1,2,2,3,3,4,4,5,5,6,6,7,7,8,8,9,9,10,10,11,11,12,12,13,13,14,14],"right_children":[2,4,6,8,10,12,14,16,18,20,22,24,26,28,30,-1,-1,-1,-1,-1,-1,-1,-1,-1,-1,-1,-1,-1,-1,-1,-1],"split_conditions":[3E0,1E1,1.2E1,1.3888889E-2,2E1,6E0,2.8E1,8E0,4.1666666E-1,1.5748031E-2,3E1,1.375E0,2.6666667E0,9.1E1,6.8E1,-3.500277E-2,-2.1106778E-2,-4.043917E-3,-2.5628133E-2,-9.994868E-3,2.7500319E-3,3.9823456E-3,1.42120095E-2,1.2626344E-2,-7.710529E-3,2.302213E-2,2.2227035E-3,3.552285E-2,5.1950105E-2,5.122308E-2,7.003521E-2],"split_indices":[3,2,3,1,2,3,3,2,1,1,2,1,1,2,2,0,0,0,0,0,0,0,0,0,0,0,0,0,0,0,0],"split_type":[0,0,0,0,0,0,0,0,0,0,0,0,0,0,0,0,0,0,0,0,0,0,0,0,0,0,0,0,0,0,0],"sum_hessian":[9.946254E5,7.0883506E5,2.857903E5,2.314493E5,4.7738575E5,2.2541053E5,6.0379777E4,1.9545233E5,3.5996977E4,2.9029225E5,1.870935E5,1.3097208E5,9.443845E4,4.899481E4,1.1384968E4,9.619093E4,9.92614E4,2.9835162E4,6.1618135E3,2.1940078E5,7.089147E4,9.530218E4,9.179131E4,1.2226888E5,8.703193E3,8.8264984E4,6.1734673E3,4.298098E4,6.0138315E3,6.614105E3,4.770863E3],"tree_param":{"num_deleted":"0","num_feature":"4","num_nodes":"31","size_leaf_vector":"1"}},{"base_weights":[-5.327155E-4,-7.784912E-2,1.9261862E-1,-1.7190594E-2,-3.0904323E-1,1.4247924E-1,3.8514194E-1,-2.6808727E-1,3.0164258E-3,-3.5999182E-1,-8.597429E-2,1.1120285E-1,2.1367414E-1,3.4192023E-1,5.540714E-1,-3.8973615E-2,-1.9145582E-2,3.1634625E-3,-8.066539E-3,-2.8161375E-2,-4.4064183E-2,4.7964193E-3,-1.0551843E-2,1.2658897E-2,-3.1664886E-3,2.2363283E-2,-2.5263996E-4,9.708487E-2,3.385191E-2,4.914483E-2,6.654621E-2],"categories":[],"categories_nodes":[],"categories_segments":[],"categories_sizes":[],"default_left":[0,0,0,0,0,0,0,0,0,0,0,0,0,0,0,0,0,0,0,0,0,0,0,0,0,0,0,0,0,0,0],"id":25,"left_children":[1,3,5,7,9,11,13,15,17,19,21,23,25,27,29,-1,-1,-1,-1,-1,-1,-1,-1,-1,-1,-1,-1,-1,-1,-1,-1],"loss_changes":[1.4740374E4,9.8853E3,2.7236338E3,2.830953E3,1.6649932E3,4.9845215E2,4.2548145E2,3.8791284E2,1.2375706E3,7.537666E2,7.1314316E1,3.4190076E2,1.4711157E2,9.897705E1,8.251465E1,0E0,0E0,0E0,0E0,0E0,0E0,0E0,0E0,0E0,0E0,0E0,0E0,0E0,0E0,0E0,0E0],"parents":[2147483647,0,0,1,1,2,2,3,3,4,4,5,5,6,6,7,7,8,8,9,9,10,10,11,11,12,12,13,13,14,14],"right_children":[2,4,6,8,10,12,14,16,18,20,22,24,26,28,30,-1,-1,-1,-1,-1,-1,-1,-1,-1,-1,-1,-1,-1,-1,-1,-1],"split_conditions":[3E0,3.5E0,1.2E1,1.2068965E-1,1.459854E-2,7E0,2.7E1,6.837607E-2,1.5E0,6E0,1.8367347E-1,1.125E0,3.375E0,2.978972E-2,4.1E1,-3.8973615E-2,-1.9145582E-2,3.1634625E-3,-8.066539E-3,-2.8161375E-2,-4.4064183E-2,4.7964193E-3,-1.0551843E-2,1.2658897E-2,-3.1664886E-3,2.2363283E-2,-2.5263996E-4,9.708487E-2,3.385191E-2,4.914483E-2,6.654621E-2],"split_indices":[3,0,3,0,1,3,3,0,0,0,1,1,1,0,3,0,0,0,0,0,0,0,0,0,0,0,0,0,0,0,0],"split_type":[0,0,0,0,0,0,0,0,0,0,0,0,0,0,0,0,0,0,0,0,0,0,0,0,0,0,0,0,0,0,0],"sum_hessian":[9.8704806E5,7.048891E5,2.8215894E5,5.583861E5,1.4650298E5,2.2386016E5,5.829877E4,4.1619023E4,5.167671E5,1.19262914E5,2.7240068E4,1.5553511E5,6.8325055E4,4.642392E4,1.1874848E4,1.6083356E4,2.5535666E4,3.850762E5,1.3169092E5,6.0485645E4,5.8777273E4,3.468505E3,2.3771564E4,1.404134E5,1.5121691E4,6.5316402E4,3.0086555E3,2.4817033E2,4.6175754E4,7.6048584E3,4.269989E3],"tree_param":{"num_deleted":"0","num_feature":"4","num_nodes":"31","size_leaf_vector":"1"}},{"base_weights":[-1.2858534E-3,-1.391711E-1,9.804915E-2,-2.0503438E-1,2.5653213E-2,5.6438126E-2,2.8267038E-1,-3.142712E-1,-1.5346962E-1,-8.45523E-3,1.570619E-1,1.4469664E-2,1.3726428E-1,2.3659702E-1,4.5980954E-1,-3.7684567E-2,-2.6707113E-2,-2.1732261E-2,-1.30767515E-2,-1.0325815E-2,2.8045836E-3,2.7278343E-3,1.94755E-2,-2.7155997E-3,7.022592E-3,1.5017501E-2,1.8327761E-3,2.0916322E-2,3.1966846E-2,4.2182237E-2,6.765308E-2],"categories":[],"categories_nodes":[],"categories_segments":[],"categories_sizes":[],"default_left":[0,0,0,0,0,0,0,0,0,0,0,0,0,0,0,0,0,0,0,0,0,0,0,0,0,0,0,0,0,0,0],"id":26,"left_children":[1,3,5,7,9,11,13,15,17,19,21,23,25,27,29,-1,-1,-1,-1,-1,-1,-1,-1,-1,-1,-1,-1,-1,-1,-1,-1],"loss_changes":[1.3416727E4,4.4528926E3,4.3740225E3,1.6507578E3,5.249121E2,1.5761412E3,8.54584E2,2.7746973E2,2.8857715E2,3.2174826E2,1.1805414E2,7.098243E2,2.4385156E2,1.893374E2,1.7766309E2,0E0,0E0,0E0,0E0,0E0,0E0,0E0,0E0,0E0,0E0,0E0,0E0,0E0,0E0,0E0,0E0],"parents":[2147483647,0,0,1,1,2,2,3,3,4,4,5,5,6,6,7,7,8,8,9,9,10,10,11,11,12,12,13,13,14,14],"right_children":[2,4,6,8,10,12,14,16,18,20,22,24,26,28,30,-1,-1,-1,-1,-1,-1,-1,-1,-1,-1,-1,-1,-1,-1,-1,-1],"split_conditions":[1.3E1,1.8518519E-2,7E0,8E0,6E0,2.8E1,1.9E1,7E0,9E0,8E0,3.3333334E-1,1.8518519E-2,2.4390244E-1,5.4E1,1.27E2,-3.7684567E-2,-2.6707113E-2,-2.1732261E-2,-1.30767515E-2,-1.0325815E-2,2.8045836E-3,2.7278343E-3,1.94755E-2,-2.7155997E-3,7.022592E-3,1.5017501E-2,1.8327761E-3,2.0916322E-2,3.1966846E-2,4.2182237E-2,6.765308E-2],"split_indices":[2,1,3,2,3,2,3,2,2,2,1,1,1,2,2,0,0,0,0,0,0,0,0,0,0,0,0,0,0,0,0],"split_type":[0,0,0,0,0,0,0,0,0,0,0,0,0,0,0,0,0,0,0,0,0,0,0,0,0,0,0,0,0,0,0],"sum_hessian":[9.795477E5,4.101814E5,5.6936625E5,2.930709E5,1.1711049E5,4.6464347E5,1.047228E5,9.3978336E4,1.9909258E5,9.297804E4,2.413245E4,3.0583947E5,1.58804E5,8.310878E4,2.1614012E4,4.040516E4,5.3573176E4,5.2216777E4,1.468758E5,2.5846365E4,6.713167E4,5.431751E3,1.8700697E4,1.7510944E5,1.3073004E5,1.4325338E5,1.5550621E4,6.2479016E4,2.0629768E4,1.8393008E4,3.2210042E3],"tree_param":{"num_deleted":"0","num_feature":"4","num_nodes":"31","size_leaf_vector":"1"}},{"base_weights":[-5.4322486E-4,-1.0040952E-1,1.12586394E-1,-2.937059E-2,-3.8357612E-1,-7.81201E-2,1.3729101E-1,-1.816172E-1,-5.968046E-3,-5.315316E-1,-1.7672935E-1,-8.827132E-2,5.170019E-1,1.514515E-1,-2.6860094E-1,2.3438113E-3,-4.29342E-2,-2.519669E-2,1.5146717E-3,-4.1205503E-2,-7.650178E-2,-8.558659E-3,-6.247696E-2,-1.1511701E-2,6.1565354E-3,9.8300084E-2,1.3742931E-2,1.0638277E-2,2.4124112E-2,-5.232842E-2,-1.22109E-2],"categories":[],"categories_nodes":[],"categories_segments":[],"categories_sizes":[],"default_left":[0,0,0,0,0,0,0,0,0,0,0,0,0,0,0,0,0,0,0,0,0,0,0,0,0,0,0,0,0,0,0],"id":27,"left_children":[1,3,5,7,9,11,13,15,17,19,21,23,25,27,29,-1,-1,-1,-1,-1,-1,-1,-1,-1,-1,-1,-1,-1,-1,-1,-1],"loss_changes":[1.0992734E4,1.0395694E4,2.1493345E3,1.4720199E3,3.1719258E3,3.1612622E2,2.3214111E3,2.7961606E3,1.8600573E3,1.6853027E3,1.7649891E3,2.0693915E2,1.5510081E2,1.5792754E3,5.0792706E2,0E0,0E0,0E0,0E0,0E0,0E0,0E0,0E0,0E0,0E0,0E0,0E0,0E0,0E0,0E0,0E0],"parents":[2147483647,0,0,1,1,2,2,3,3,4,4,5,5,6,6,7,7,8,8,9,9,10,10,11,11,12,12,13,13,14,14],"right_children":[2,4,6,8,10,12,14,16,18,20,22,24,26,28,30,-1,-1,-1,-1,-1,-1,-1,-1,-1,-1,-1,-1,-1,-1,-1,-1],"split_conditions":[1.6E1,3.5E0,2.65625E-1,7E0,1.1E1,1.76E2,1.6E1,1.0454545E0,1.2698413E-1,5.3333335E0,8E0,2.0833334E-2,1.2068965E-1,3.6E1,3.3E1,2.3438113E-3,-4.29342E-2,-2.519669E-2,1.5146717E-3,-4.1205503E-2,-7.650178E-2,-8.558659E-3,-6.247696E-2,-1.1511701E-2,6.1565354E-3,9.8300084E-2,1.3742931E-2,1.0638277E-2,2.4124112E-2,-5.232842E-2,-1.22109E-2],"split_indices":[2,0,0,2,2,2,0,0,0,0,0,1,0,2,2,0,0,0,0,0,0,0,0,0,0,0,0,0,0,0,0],"split_type":[0,0,0,0,0,0,0,0,0,0,0,0,0,0,0,0,0,0,0,0,0,0,0,0,0,0,0,0,0,0,0],"sum_hessian":[9.729927E5,5.1679066E5,4.56202E5,4.1314478E5,1.0364588E5,5.2319695E4,4.038823E5,5.5044273E4,3.581005E5,6.042378E4,4.3222105E4,5.1443062E4,8.7663196E2,3.9026753E5,1.3614756E4,3.0116287E4,2.4927986E4,2.830622E4,3.2979428E5,3.9972387E4,2.0451393E4,3.5916887E4,7.3052173E3,4.3626836E4,7.816227E3,3.9280185E2,4.8383014E2,2.598443E5,1.3042325E5,4.9705845E3,8.644171E3],"tree_param":{"num_deleted":"0","num_feature":"4","num_nodes":"31","size_leaf_vector":"1"}},{"base_weights":[1.3467428E-4,-1.1538594E-1,8.270541E-2,-1.7007436E-1,2.8362766E-2,5.209836E-2,2.8727064E-1,-2.779446E-1,-1.20915785E-1,-1.561227E-3,1.730276E-1,1.5187059E-2,1.0848457E-1,2.2979698E-1,4.1408005E-1,-3.3317298E-2,-2.368076E-2,-1.754794E-2,-1.0191739E-2,-8.42227E-3,3.1289533E-3,3.1239835E-3,2.1476168E-2,-2.5749584E-3,7.002777E-3,9.012092E-3,1.5291098E-2,2.01169E-2,3.0832043E-2,3.7844993E-2,6.0663115E-2],"categories":[],"categories_nodes":[],"categories_segments":[],"categories_sizes":[],"default_left":[0,0,0,0,0,0,0,0,0,0,0,0,0,0,0,0,0,0,0,0,0,0,0,0,0,0,0,0,0,0,0],"id":28,"left_children":[1,3,5,7,9,11,13,15,17,19,21,23,25,27,29,-1,-1,-1,-1,-1,-1,-1,-1,-1,-1,-1,-1,-1,-1,-1,-1],"loss_changes":[9.223919E3,3.1687676E3,3.530817E3,1.5483291E3,4.808936E2,1.0209447E3,5.348125E2,2.0759619E2,2.0791284E2,2.4996002E2,1.1266089E2,6.655668E2,1.5831494E2,1.1347412E2,1.567998E2,0E0,0E0,0E0,0E0,0E0,0E0,0E0,0E0,0E0,0E0,0E0,0E0,0E0,0E0,0E0,0E0],"parents":[2147483647,0,0,1,1,2,2,3,3,4,4,5,5,6,6,7,7,8,8,9,9,10,10,11,11,12,12,13,13,14,14],"right_children":[2,4,6,8,10,12,14,16,18,20,22,24,26,28,30,-1,-1,-1,-1,-1,-1,-1,-1,-1,-1,-1,-1,-1,-1,-1,-1],"split_conditions":[1.3E1,2.9411765E-2,9E0,8E0,7E0,2.6E1,1.8E1,7E0,9E0,8E0,3.75E-1,2.3255814E-2,4E0,5.4E1,4.1E1,-3.3317298E-2,-2.368076E-2,-1.754794E-2,-1.0191739E-2,-8.42227E-3,3.1289533E-3,3.1239835E-3,2.1476168E-2,-2.5749584E-3,7.002777E-3,9.012092E-3,1.5291098E-2,2.01169E-2,3.0832043E-2,3.7844993E-2,6.0663115E-2],"split_indices":[2,1,3,2,3,2,3,2,2,2,1,1,3,2,3,0,0,0,0,0,0,0,0,0,0,0,0,0,0,0,0],"split_type":[0,0,0,0,0,0,0,0,0,0,0,0,0,0,0,0,0,0,0,0,0,0,0,0,0,0,0,0,0,0,0],"sum_hessian":[9.670055E5,4.0307828E5,5.6392725E5,2.9199153E5,1.11086766E5,4.905347E5,7.339254E4,9.1407805E4,2.0058372E5,9.204766E4,1.9039113E4,2.964652E5,1.9406952E5,5.050502E4,2.2887516E4,3.901764E4,5.2390164E4,5.1801367E4,1.4878234E5,2.6177174E4,6.5870484E4,4.330016E3,1.4709097E4,1.6975194E5,1.2671324E5,1.3731388E5,5.675565E4,3.7014047E4,1.3490974E4,1.931617E4,3.5713472E3],"tree_param":{"num_deleted":"0","num_feature":"4","num_nodes":"31","size_leaf_vector":"1"}},{"base_weights":[-5.741212E-4,-7.1756616E-2,1.1332164E-1,-1.21335E-2,-3.195386E-1,8.869684E-2,3.4351087E-1,-2.5250742E-1,-7.03708E-4,-4.957545E-1,-1.4402442E-1,-3.0405069E-2,1.2508E-1,2.9499036E-1,4.9159494E-1,5.698505E-2,-2.7816057E-2,-1.5684718E-2,1.9133587E-3,-3.792693E-2,-7.325908E-2,-6.886113E-3,-5.6332555E-2,-1.0201682E-2,3.652362E-3,1.4016189E-2,-3.103361E-2,3.0625239E-2,-5.787398E-3,4.4237252E-2,6.699749E-2],"categories":[],"categories_nodes":[],"categories_segments":[],"categories_sizes":[],"default_left":[0,0,0,0,0,0,0,0,0,0,0,0,0,0,0,0,0,0,0,0,0,0,0,0,0,0,0,0,0,0,0],"id":29,"left_children":[1,3,5,7,9,11,13,15,17,19,21,23,25,27,29,-1,-1,-1,-1,-1,-1,-1,-1,-1,-1,-1,-1,-1,-1,-1,-1],"loss_changes":[7.7945796E3,8.74074E3,2.0959517E3,1.3102352E3,3.549084E3,1.4474832E3,2.56604E2,4.568275E2,1.4101232E3,1.5794639E3,1.8119089E3,3.7463678E2,1.6803306E3,1.06986084E2,7.712158E1,0E0,0E0,0E0,0E0,0E0,0E0,0E0,0E0,0E0,0E0,0E0,0E0,0E0,0E0,0E0,0E0],"parents":[2147483647,0,0,1,1,2,2,3,3,4,4,5,5,6,6,7,7,8,8,9,9,10,10,11,11,12,12,13,13,14,14],"right_children":[2,4,6,8,10,12,14,16,18,20,22,24,26,28,30,-1,-1,-1,-1,-1,-1,-1,-1,-1,-1,-1,-1,-1,-1,-1,-1],"split_conditions":[1.9E1,3.5E0,1.3E1,9.467456E-2,1.1E1,4.4186047E-1,2.7E1,5E0,7E0,5.3333335E0,9.5E0,1E0,1.85E1,1.5E1,1.27E2,5.698505E-2,-2.7816057E-2,-1.5684718E-2,1.9133587E-3,-3.792693E-2,-7.325908E-2,-6.886113E-3,-5.6332555E-2,-1.0201682E-2,3.652362E-3,1.4016189E-2,-3.103361E-2,3.0625239E-2,-5.787398E-3,4.4237252E-2,6.699749E-2],"split_indices":[2,0,3,0,2,0,3,2,2,0,0,3,0,0,2,0,0,0,0,0,0,0,0,0,0,0,0,0,0,0,0],"split_type":[0,0,0,0,0,0,0,0,0,0,0,0,0,0,0,0,0,0,0,0,0,0,0,0,0,0,0,0,0,0,0],"sum_hessian":[9.614153E5,5.9164794E5,3.6976738E5,4.76895E5,1.1475294E5,3.340349E5,3.5732445E4,2.1646104E4,4.5524888E5,5.7261082E4,5.7491855E4,7.8163484E4,2.5587144E5,2.6916205E4,8.816242E3,6.541742E2,2.099193E4,5.1316797E4,4.039321E5,3.8384633E4,1.8876447E4,4.875353E4,8.738321E3,3.776041E4,4.040307E4,2.4730597E5,8.565471E3,2.6083844E4,8.3236053E2,6.912324E3,1.9039176E3],"tree_param":{"num_deleted":"0","num_feature":"4","num_nodes":"31","size_leaf_vector":"1"}},{"base_weights":[-2.4456966E-3,-4.6901125E-2,1.5188614E-1,-7.1641784E-3,-2.451725E-1,1.1634401E-1,3.0688977E-1,-1.4344923E-1,9.5680915E-3,-2.969906E-1,-8.695095E-2,9.1645285E-2,1.651811E-1,2.8275952E-1,5.5593145E-1,-2.739364E-2,-1.03351055E-2,4.324742E-3,-5.244625E-3,-2.165371E-2,-3.580291E-2,-4.4795796E-3,-1.47052845E-2,-3.994587E-3,1.0020726E-2,4.802012E-2,1.60528E-2,5.704089E-2,2.7208803E-2,8.327567E-2,5.3029705E-2],"categories":[],"categories_nodes":[],"categories_segments":[],"categories_sizes":[],"default_left":[0,0,0,0,0,0,0,0,0,0,0,0,0,0,0,0,0,0,0,0,0,0,0,0,0,0,0,0,0,0,0],"id":30,"left_children":[1,3,5,7,9,11,13,15,17,19,21,23,25,27,29,-1,-1,-1,-1,-1,-1,-1,-1,-1,-1,-1,-1,-1,-1,-1,-1],"loss_changes":[6.555089E3,5.844127E3,1.177082E3,1.4090856E3,1.0153198E3,2.0964014E2,2.3934277E2,3.5351355E2,1.1494724E3,4.5804297E2,7.740512E1,1.3006311E2,8.549426E1,1.11382324E2,2.4533081E1,0E0,0E0,0E0,0E0,0E0,0E0,0E0,0E0,0E0,0E0,0E0,0E0,0E0,0E0,0E0,0E0],"parents":[2147483647,0,0,1,1,2,2,3,3,4,4,5,5,6,6,7,7,8,8,9,9,10,10,11,11,12,12,13,13,14,14],"right_children":[2,4,6,8,10,12,14,16,18,20,22,24,26,28,30,-1,-1,-1,-1,-1,-1,-1,-1,-1,-1,-1,-1,-1,-1,-1,-1],"split_conditions":[4E0,4E0,1.4E1,1.6666667E-1,1.3333334E-2,8E0,4.1E1,6.837607E-2,1.2E0,6E0,7.5E0,2.1428572E-1,2.7777778E-2,9.4339624E-2,2.5E-1,-2.739364E-2,-1.03351055E-2,4.324742E-3,-5.244625E-3,-2.165371E-2,-3.580291E-2,-4.4795796E-3,-1.47052845E-2,-3.994587E-3,1.0020726E-2,4.802012E-2,1.60528E-2,5.704089E-2,2.7208803E-2,8.327567E-2,5.3029705E-2],"split_indices":[3,0,3,0,1,3,3,0,0,0,0,0,1,1,1,0,0,0,0,0,0,0,0,0,0,0,0,0,0,0,0],"split_type":[0,0,0,0,0,0,0,0,0,0,0,0,0,0,0,0,0,0,0,0,0,0,0,0,0,0,0,0,0,0,0],"sum_hessian":[9.554267E5,7.417621E5,2.1366458E5,6.1792125E5,1.2384086E5,1.7381158E5,3.9853004E4,6.756816E4,5.5035306E5,9.328788E4,3.0552982E4,1.1543478E5,5.837679E4,3.6334594E4,3.5184111E3,1.5881351E4,5.1686805E4,3.5665684E5,1.9369623E5,4.024558E4,5.30423E4,1.7958633E4,1.2594349E4,7.0517036E3,1.0838308E5,8.4823425E2,5.7528555E4,1.2978777E3,3.5036715E4,2.9552826E2,3.2228828E3],"tree_param":{"num_deleted":"0","num_feature":"4","num_nodes":"31","size_leaf_vector":"1"}},{"base_weights":[4.6232715E-4,-7.928162E-2,7.900006E-2,-1.2570979E-1,3.1455908E-2,5.4130096E-2,2.3445612E-1,-2.2443214E-1,-8.988377E-2,1.2713812E-2,1.4903225E-1,2.662536E-2,1.0596845E-1,1.9456199E-1,3.8850534E-1,-2.6622405E-2,-1.935726E-2,-1.236723E-2,-6.823849E-3,-6.064725E-3,3.4380977E-3,3.4684357E-3,1.9462818E-2,1.3306932E-4,6.0445573E-3,1.17206555E-2,2.491756E-3,1.756494E-2,3.4125812E-2,3.5920452E-2,6.56144E-2],"categories":[],"categories_nodes":[],"categories_segments":[],"categories_sizes":[],"default_left":[0,0,0,0,0,0,0,0,0,0,0,0,0,0,0,0,0,0,0,0,0,0,0,0,0,0,0,0,0,0,0],"id":31,"left_children":[1,3,5,7,9,11,13,15,17,19,21,23,25,27,29,-1,-1,-1,-1,-1,-1,-1,-1,-1,-1,-1,-1,-1,-1,-1,-1],"loss_changes":[5.959845E3,2.4276365E3,1.8535569E3,1.1766592E3,3.0737482E2,5.892958E2,4.0628247E2,1.14194824E2,1.7852356E2,1.9123816E2,9.998151E1,2.3100745E2,1.3050134E2,1.4565771E2,1.0641699E2,0E0,0E0,0E0,0E0,0E0,0E0,0E0,0E0,0E0,0E0,0E0,0E0,0E0,0E0,0E0,0E0],"parents":[2147483647,0,0,1,1,2,2,3,3,4,4,5,5,6,6,7,7,8,8,9,9,10,10,11,11,12,12,13,13,14,14],"right_children":[2,4,6,8,10,12,14,16,18,20,22,24,26,28,30,-1,-1,-1,-1,-1,-1,-1,-1,-1,-1,-1,-1,-1,-1,-1,-1],"split_conditions":[1.5E1,2.9411765E-2,9E0,8E0,8E0,3.1E1,2.2E1,7E0,1E1,8E0,4.7619048E-1,3.2258064E-2,2.3076923E-1,9.1E1,1.76E2,-2.6622405E-2,-1.935726E-2,-1.236723E-2,-6.823849E-3,-6.064725E-3,3.4380977E-3,3.4684357E-3,1.9462818E-2,1.3306932E-4,6.0445573E-3,1.17206555E-2,2.491756E-3,1.756494E-2,3.4125812E-2,3.5920452E-2,6.56144E-2],"split_indices":[2,1,3,2,3,2,3,2,2,2,1,1,1,2,2,0,0,0,0,0,0,0,0,0,0,0,0,0,0,0,0],"split_type":[0,0,0,0,0,0,0,0,0,0,0,0,0,0,0,0,0,0,0,0,0,0,0,0,0,0,0,0,0,0,0],"sum_hessian":[9.516078E5,4.7217797E5,4.7942988E5,3.3269225E5,1.3948572E5,4.1330966E5,6.61202E4,8.858412E4,2.4410812E5,1.2030912E5,1.9176605E4,2.7003447E5,1.4327517E5,5.252108E4,1.3599124E4,3.7623883E4,5.096023E4,9.531523E4,1.487929E5,2.7430992E4,9.2878125E4,5.4672666E3,1.3709338E4,1.5449003E5,1.1554446E5,1.25828055E5,1.744712E4,4.652509E4,5.995988E3,1.2259327E4,1.3397975E3],"tree_param":{"num_deleted":"0","num_feature":"4","num_nodes":"31","size_leaf_vector":"1"}},{"base_weights":[-2.15102E-4,-8.598357E-2,6.0731757E-2,-2.2824695E-2,-3.6052102E-1,7.199725E-2,-2.2714849E-1,5.933762E-3,-1.4222895E-1,-2.522766E-1,-5.735951E-1,-7.210642E-2,9.3814515E-2,-4.8347187E-1,-1.064119E-1,-2.432834E-2,1.7561307E-3,-2.9161502E-2,6.6850977E-3,-3.1905767E-2,-4.830784E-3,-6.393489E-2,-1.996272E-3,-1.5552598E-2,-4.234651E-3,5.2346103E-3,1.4676576E-2,-6.366128E-2,-4.4965437E-3,-6.5071817E-4,-2.6004313E-2],"categories":[],"categories_nodes":[],"categories_segments":[],"categories_sizes":[],"default_left":[0,0,0,0,0,0,0,0,0,0,0,0,0,0,0,0,0,0,0,0,0,0,0,0,0,0,0,0,0,0,0],"id":32,"left_children":[1,3,5,7,9,11,13,15,17,19,21,23,25,27,29,-1,-1,-1,-1,-1,-1,-1,-1,-1,-1,-1,-1,-1,-1,-1,-1],"loss_changes":[4.9496836E3,6.8203984E3,1.7952153E3,1.098087E3,1.6966055E3,1.6747783E3,6.4508276E2,7.4679596E2,1.938674E3,6.645073E2,9.021416E2,1.7388654E2,1.01588525E3,4.4820068E2,2.175215E2,0E0,0E0,0E0,0E0,0E0,0E0,0E0,0E0,0E0,0E0,0E0,0E0,0E0,0E0,0E0,0E0],"parents":[2147483647,0,0,1,1,2,2,3,3,4,4,5,5,6,6,7,7,8,8,9,9,10,10,11,11,12,12,13,13,14,14],"right_children":[2,4,6,8,10,12,14,16,18,20,22,24,26,28,30,-1,-1,-1,-1,-1,-1,-1,-1,-1,-1,-1,-1,-1,-1,-1,-1],"split_conditions":[1.3E1,3.5E0,1.3E1,1.8571428E0,5.6666665E0,2.580645E-1,2.6E1,8.173077E-2,9E0,1.1E1,2.4271845E-3,1.0769231E-1,2.6E1,2.4271845E-3,2.2E1,-2.432834E-2,1.7561307E-3,-2.9161502E-2,6.6850977E-3,-3.1905767E-2,-4.830784E-3,-6.393489E-2,-1.996272E-3,-1.5552598E-2,-4.234651E-3,5.2346103E-3,1.4676576E-2,-6.366128E-2,-4.4965437E-3,-6.5071817E-4,-2.6004313E-2],"split_indices":[2,0,0,0,0,0,2,0,2,2,1,0,2,1,0,0,0,0,0,0,0,0,0,0,0,0,0,0,0,0,0],"split_type":[0,0,0,0,0,0,0,0,0,0,0,0,0,0,0,0,0,0,0,0,0,0,0,0,0,0,0,0,0,0,0],"sum_hessian":[9.468856E5,3.933446E5,5.53541E5,3.1977878E5,7.356581E4,5.32696E5,2.084501E4,2.5771033E5,6.206846E4,4.878472E4,2.4781092E4,7.0044914E4,4.626511E5,6.6737197E3,1.417129E4,1.14869375E4,2.4622339E5,3.6202E4,2.5866459E4,3.675143E4,1.2033289E4,2.2150201E4,2.6308914E3,1.8416809E4,5.162811E4,2.5945928E5,2.0319181E5,4.9459717E3,1.727748E3,8.587788E3,5.5835024E3],"tree_param":{"num_deleted":"0","num_feature":"4","num_nodes":"31","size_leaf_vector":"1"}},{"base_weights":[-1.1995233E-3,3.0213078E-2,-1.3944413E-1,7.774768E-3,1.6064778E-1,-4.208458E-1,-2.024247E-2,-1.5305392E-1,2.0155404E-2,1.3099451E-1,2.995598E-1,-3.1220648E-1,-6.6176766E-1,3.579444E-2,-1.986134E-1,3.2897138E-3,-3.6056694E-2,-1.17385425E-2,3.945394E-3,2.5234537E-3,1.5728312E-2,2.3311831E-2,4.4039052E-2,-3.4743644E-2,-9.1203125E-3,-6.918558E-2,1.0957374E-2,-5.0744084E-3,1.5548355E-2,-4.797837E-2,-7.656871E-3],"categories":[],"categories_nodes":[],"categories_segments":[],"categories_sizes":[],"default_left":[0,0,0,0,0,0,0,0,0,0,0,0,0,0,0,0,0,0,0,0,0,0,0,0,0,0,0,0,0,0,0],"id":33,"left_children":[1,3,5,7,9,11,13,15,17,19,21,23,25,27,29,-1,-1,-1,-1,-1,-1,-1,-1,-1,-1,-1,-1,-1,-1,-1,-1],"loss_changes":[4.0898389E3,2.246017E3,5.849166E3,1.3037684E3,4.6394336E2,1.3578457E3,1.2243406E3,1.8059786E3,1.6137755E3,2.5807812E2,1.8529883E2,2.7841357E2,3.7430322E2,9.654394E2,1.00479675E3,0E0,0E0,0E0,0E0,0E0,0E0,0E0,0E0,0E0,0E0,0E0,0E0,0E0,0E0,0E0,0E0],"parents":[2147483647,0,0,1,1,2,2,3,3,4,4,5,5,6,6,7,7,8,8,9,9,10,10,11,11,12,12,13,13,14,14],"right_children":[2,4,6,8,10,12,14,16,18,20,22,24,26,28,30,-1,-1,-1,-1,-1,-1,-1,-1,-1,-1,-1,-1,-1,-1,-1,-1],"split_conditions":[3.5E0,6E0,1.1E1,7E0,6E1,5.3333335E0,1.1E1,1.0454545E0,1.8045112E-1,3.9814815E-1,1.7E1,1E0,2E0,2.1E1,2.2E1,3.2897138E-3,-3.6056694E-2,-1.17385425E-2,3.945394E-3,2.5234537E-3,1.5728312E-2,2.3311831E-2,4.4039052E-2,-3.4743644E-2,-9.1203125E-3,-6.918558E-2,1.0957374E-2,-5.0744084E-3,1.5548355E-2,-4.797837E-2,-7.656871E-3],"split_indices":[0,3,2,2,2,0,0,0,0,0,3,3,3,2,2,0,0,0,0,0,0,0,0,0,0,0,0,0,0,0,0],"split_type":[0,0,0,0,0,0,0,0,0,0,0,0,0,0,0,0,0,0,0,0,0,0,0,0,0,0,0,0,0,0,0],"sum_hessian":[9.41788E5,7.6741344E5,1.7437456E5,6.547754E5,1.1263808E5,5.1885332E4,1.22489234E5,4.680114E4,6.079742E5,9.282488E4,1.9813197E4,3.5761586E4,1.6123743E4,9.32079E4,2.928134E4,2.4683375E4,2.2117768E4,7.480848E4,5.3316575E5,1.8480225E4,7.434466E4,1.3463843E4,6.3493535E3,3.0844174E4,4.917413E3,1.5518507E4,6.052362E2,5.409575E4,3.911215E4,8.861958E3,2.0419383E4],"tree_param":{"num_deleted":"0","num_feature":"4","num_nodes":"31","size_leaf_vector":"1"}},{"base_weights":[2.1857869E-4,-4.974195E-2,7.216553E-2,-1.5979059E-2,-2.9371244E-1,-2.2462174E-2,1.0048972E-1,1.0008205E-2,-1.0183239E-1,-6.872217E-1,-2.1991934E-1,-5.1335435E-2,5.6858916E-2,1.1250453E-1,-1.842424E-1,-1.829824E-2,2.098824E-3,-2.8465888E-2,7.5712735E-3,-7.219911E-2,-1.3249213E-2,-1.5298572E-2,-4.7230702E-2,3.686999E-2,-5.6986674E-3,3.1630953E-3,3.848256E-2,8.637576E-3,1.786384E-2,-3.4723815E-2,-6.0064546E-3],"categories":[],"categories_nodes":[],"categories_segments":[],"categories_sizes":[],"default_left":[0,0,0,0,0,0,0,0,0,0,0,0,0,0,0,0,0,0,0,0,0,0,0,0,0,0,0,0,0,0,0],"id":34,"left_children":[1,3,5,7,9,11,13,15,17,19,21,23,25,27,29,-1,-1,-1,-1,-1,-1,-1,-1,-1,-1,-1,-1,-1,-1,-1,-1],"loss_changes":[3.3712695E3,4.559451E3,1.0302145E3,1.0848368E3,1.9538198E3,2.028E2,1.01203735E3,7.909463E2,3.6673984E3,2.0484326E2,9.5718335E2,1.541181E2,1.9550691E2,4.9047217E2,2.4241617E2,0E0,0E0,0E0,0E0,0E0,0E0,0E0,0E0,0E0,0E0,0E0,0E0,0E0,0E0,0E0,0E0],"parents":[2147483647,0,0,1,1,2,2,3,3,4,4,5,5,6,6,7,7,8,8,9,9,10,10,11,11,12,12,13,13,14,14],"right_children":[2,4,6,8,10,12,14,16,18,20,22,24,26,28,30,-1,-1,-1,-1,-1,-1,-1,-1,-1,-1,-1,-1,-1,-1,-1,-1],"split_conditions":[1.8E1,4.5E0,4.4186047E-1,1.95E0,9E0,2.3809524E-2,1.6E1,9.467456E-2,9E0,2.4271845E-3,9E0,2.978972E-2,5.4E1,4.4E1,1.0344828E-1,-1.829824E-2,2.098824E-3,-2.8465888E-2,7.5712735E-3,-7.219911E-2,-1.3249213E-2,-1.5298572E-2,-4.7230702E-2,3.686999E-2,-5.6986674E-3,3.1630953E-3,3.848256E-2,8.637576E-3,1.786384E-2,-3.4723815E-2,-6.0064546E-3],"split_indices":[2,0,0,0,2,1,0,0,2,1,0,0,2,2,1,0,0,0,0,0,0,0,0,0,0,0,0,0,0,0,0],"split_type":[0,0,0,0,0,0,0,0,0,0,0,0,0,0,0,0,0,0,0,0,0,0,0,0,0,0,0,0,0,0,0],"sum_hessian":[9.3789275E5,5.535226E5,3.843702E5,4.862341E5,6.728851E4,8.854668E4,2.958235E5,3.732535E5,1.1298061E5,1.0624412E4,5.6664094E4,6.491695E4,2.362973E4,2.8384666E5,1.197684E4,2.009193E4,3.5316156E5,5.5662125E4,5.7318484E4,9.997487E3,6.26925E2,4.4787883E4,1.1876213E4,8.60958E2,6.4055992E4,2.1942926E4,1.6868047E3,2.0346297E5,8.038369E4,5.178176E3,6.798664E3],"tree_param":{"num_deleted":"0","num_feature":"4","num_nodes":"31","size_leaf_vector":"1"}},{"base_weights":[-7.5153256E-4,2.3258954E-2,-1.2984392E-1,-8.945429E-2,4.1507162E-2,-3.5971817E-1,-2.621374E-2,3.90361E-2,-2.610594E-1,-9.134098E-2,6.014616E-2,-2.3077211E-1,-5.9704745E-1,2.0003838E-2,-1.7300591E-1,2.1314403E-2,2.9829724E-3,-1.7487505E-2,-3.791435E-2,-2.1413963E-2,-6.0539804E-3,4.861038E-3,1.3820483E-2,-2.8381025E-2,2.08232E-3,-6.541421E-2,8.081907E-3,-4.737632E-3,1.3953603E-2,-4.064929E-2,-7.2828243E-3],"categories":[],"categories_nodes":[],"categories_segments":[],"categories_sizes":[],"default_left":[0,0,0,0,0,0,0,0,0,0,0,0,0,0,0,0,0,0,0,0,0,0,0,0,0,0,0,0,0,0,0],"id":35,"left_children":[1,3,5,7,9,11,13,15,17,19,21,23,25,27,29,-1,-1,-1,-1,-1,-1,-1,-1,-1,-1,-1,-1,-1,-1,-1,-1],"loss_changes":[2.8942217E3,1.619361E3,3.488375E3,2.4189568E3,1.6778721E3,1.3923486E3,6.8478375E2,1.0054997E2,4.779668E2,3.1533423E2,5.350845E2,3.9345642E2,6.199995E2,6.182888E2,5.653038E2,0E0,0E0,0E0,0E0,0E0,0E0,0E0,0E0,0E0,0E0,0E0,0E0,0E0,0E0,0E0,0E0],"parents":[2147483647,0,0,1,1,2,2,3,3,4,4,5,5,6,6,7,7,8,8,9,9,10,10,11,11,12,12,13,13,14,14],"right_children":[2,4,6,8,10,12,14,16,18,20,22,24,26,28,30,-1,-1,-1,-1,-1,-1,-1,-1,-1,-1,-1,-1,-1,-1,-1,-1],"split_conditions":[4E0,8E0,1.2E1,1.1836735E0,2E-1,5.6666665E0,1.2E1,5E0,2.4117646E0,7.5E-2,4.4E1,2.4271845E-3,2.4271845E-3,2.4E1,2.4E1,2.1314403E-2,2.9829724E-3,-1.7487505E-2,-3.791435E-2,-2.1413963E-2,-6.0539804E-3,4.861038E-3,1.3820483E-2,-2.8381025E-2,2.08232E-3,-6.541421E-2,8.081907E-3,-4.737632E-3,1.3953603E-2,-4.064929E-2,-7.2828243E-3],"split_indices":[0,2,2,0,0,0,0,2,0,0,2,1,1,2,2,0,0,0,0,0,0,0,0,0,0,0,0,0,0,0,0],"split_type":[0,0,0,0,0,0,0,0,0,0,0,0,0,0,0,0,0,0,0,0,0,0,0,0,0,0,0,0,0,0,0],"sum_hessian":[9.33747E5,7.8731206E5,1.4643497E5,1.0970375E5,6.776083E5,4.550112E4,1.0093385E5,6.2732883E4,4.6970867E4,8.337253E4,5.9423575E5,2.9483873E4,1.6017248E4,7.6765164E4,2.4168684E4,3.1494463E3,5.9583438E4,2.7154492E4,1.9816375E4,1.6717395E4,6.665514E4,5.1772603E5,7.650973E4,2.4350484E4,5.133389E3,1.4772999E4,1.2442498E3,4.9092426E4,2.767274E4,7.255357E3,1.6913326E4],"tree_param":{"num_deleted":"0","num_feature":"4","num_nodes":"31","size_leaf_vector":"1"}},{"base_weights":[-7.388137E-4,-2.5894403E-2,1.1584549E-1,-4.021681E-4,-1.6395304E-1,9.420832E-2,2.9300883E-1,-1.8277936E-1,5.741662E-3,-1.9790319E-1,-4.724767E-2,7.784387E-1,9.2383064E-2,2.6024753E-1,4.7692934E-1,-2.3162514E-2,-1.3757593E-2,3.067788E-4,2.5810871E-2,-1.8981257E-2,-4.4581797E-2,7.855468E-4,-8.51586E-3,3.5846356E-2,8.878837E-2,7.2674053E-3,1.4769209E-2,6.366696E-2,2.46637E-2,7.711231E-2,4.500747E-2],"categories":[],"categories_nodes":[],"categories_segments":[],"categories_sizes":[],"default_left":[0,0,0,0,0,0,0,0,0,0,0,0,0,0,0,0,0,0,0,0,0,0,0,0,0,0,0,0,0,0,0],"id":36,"left_children":[1,3,5,7,9,11,13,15,17,19,21,23,25,27,29,-1,-1,-1,-1,-1,-1,-1,-1,-1,-1,-1,-1,-1,-1,-1,-1],"loss_changes":[2.7280667E3,2.6927737E3,6.3281665E2,7.236859E2,4.7250635E2,1.8367041E2,1.0814014E2,4.6442993E1,4.2162265E2,1.8521362E2,5.6144497E1,1.7667038E1,1.5994177E2,7.799036E1,2.1106201E1,0E0,0E0,0E0,0E0,0E0,0E0,0E0,0E0,0E0,0E0,0E0,0E0,0E0,0E0,0E0,0E0],"parents":[2147483647,0,0,1,1,2,2,3,3,4,4,5,5,6,6,7,7,8,8,9,9,10,10,11,11,12,12,13,13,14,14],"right_children":[2,4,6,8,10,12,14,16,18,20,22,24,26,28,30,-1,-1,-1,-1,-1,-1,-1,-1,-1,-1,-1,-1,-1,-1,-1,-1],"split_conditions":[5E0,4E0,2E1,8.173077E-2,4.4E-1,2.978972E-2,4.3E1,5.4744527E-2,3.6666667E0,2.2E1,6.5E0,9.708738E-3,1.1E1,1E-1,2.6923078E-1,-2.3162514E-2,-1.3757593E-2,3.067788E-4,2.5810871E-2,-1.8981257E-2,-4.4581797E-2,7.855468E-4,-8.51586E-3,3.5846356E-2,8.878837E-2,7.2674053E-3,1.4769209E-2,6.366696E-2,2.46637E-2,7.711231E-2,4.500747E-2],"split_indices":[3,0,3,0,1,0,3,0,0,0,0,1,3,1,1,0,0,0,0,0,0,0,0,0,0,0,0,0,0,0,0],"split_type":[0,0,0,0,0,0,0,0,0,0,0,0,0,0,0,0,0,0,0,0,0,0,0,0,0,0,0,0,0,0,0],"sum_hessian":[9.302067E5,7.651169E5,1.6508977E5,6.45861E5,1.19255875E5,1.47123E5,1.7966773E4,2.1047434E4,6.2481356E5,9.238108E4,2.6874791E4,3.9028946E2,1.467327E5,1.525233E4,2.7144446E3,1.011417E4,1.0933264E4,6.18264E5,6.549605E3,8.946324E4,2.917838E3,1.0954024E4,1.5920768E4,8.156685E1,3.087226E2,1.0818426E5,3.854845E4,5.3064526E2,1.4721685E4,2.2473598E2,2.4897085E3],"tree_param":{"num_deleted":"0","num_feature":"4","num_nodes":"31","size_leaf_vector":"1"}},{"base_weights":[8.3459244E-4,-2.1793077E-2,1.0618375E-1,9.119526E-4,-1.4578348E-1,7.654916E-2,2.1089698E-1,-1.42626E-1,7.993386E-3,-1.7994016E-1,-4.9694788E-2,4.2963034E-1,7.303958E-2,1.8870474E-1,4.0769893E-1,-1.8534396E-2,-9.953631E-3,5.4232747E-4,2.4675129E-2,-1.7158657E-2,-4.347152E-2,-9.309772E-3,-2.0022923E-3,9.118777E-2,3.4839284E-2,-3.7442066E-3,8.450655E-3,5.2738126E-2,1.8031886E-2,-3.8833838E-2,4.1862424E-2],"categories":[],"categories_nodes":[],"categories_segments":[],"categories_sizes":[],"default_left":[0,0,0,0,0,0,0,0,0,0,0,0,0,0,0,0,0,0,0,0,0,0,0,0,0,0,0,0,0,0,0],"id":37,"left_children":[1,3,5,7,9,11,13,15,17,19,21,23,25,27,29,-1,-1,-1,-1,-1,-1,-1,-1,-1,-1,-1,-1,-1,-1,-1,-1],"loss_changes":[2.2135947E3,2.1519744E3,5.094746E2,6.567314E2,3.8830273E2,1.5854602E2,1.5809436E2,5.5895935E1,3.7782764E2,1.8569312E2,3.995848E1,4.9016983E1,1.6053436E2,9.2343506E1,3.2072815E1,0E0,0E0,0E0,0E0,0E0,0E0,0E0,0E0,0E0,0E0,0E0,0E0,0E0,0E0,0E0,0E0],"parents":[2147483647,0,0,1,1,2,2,3,3,4,4,5,5,6,6,7,7,8,8,9,9,10,10,11,11,12,12,13,13,14,14],"right_children":[2,4,6,8,10,12,14,16,18,20,22,24,26,28,30,-1,-1,-1,-1,-1,-1,-1,-1,-1,-1,-1,-1,-1,-1,-1,-1],"split_conditions":[5E0,4E0,1.4E1,1.010101E-1,3.043478E-1,1.6666668E-2,3.8E1,6.837607E-2,3.6666667E0,2.2E1,6.25E-1,2.4271845E-3,2.962963E-1,6.896552E-2,1.2698413E-1,-1.8534396E-2,-9.953631E-3,5.4232747E-4,2.4675129E-2,-1.7158657E-2,-4.347152E-2,-9.309772E-3,-2.0022923E-3,9.118777E-2,3.4839284E-2,-3.7442066E-3,8.450655E-3,5.2738126E-2,1.8031886E-2,-3.8833838E-2,4.1862424E-2],"split_indices":[3,0,3,0,1,1,3,0,0,0,1,1,0,1,0,0,0,0,0,0,0,0,0,0,0,0,0,0,0,0,0],"split_type":[0,0,0,0,0,0,0,0,0,0,0,0,0,0,0,0,0,0,0,0,0,0,0,0,0,0,0,0,0,0,0],"sum_hessian":[9.285948E5,7.6441E5,1.6418483E5,6.46098E5,1.1831199E5,1.2797009E5,3.621473E4,3.0375666E4,6.157223E5,8.728418E4,3.1027814E4,1.2582905E3,1.26711805E5,3.2546592E4,3.668137E3,1.5251974E4,1.5123692E4,6.09166E5,6.5563477E3,8.451477E4,2.7694065E3,1.2597908E4,1.8429906E4,1.7993343E2,1.078357E3,1.1914649E4,1.1479716E5,7.8491034E2,3.1761682E4,4.9194447E1,3.6189424E3],"tree_param":{"num_deleted":"0","num_feature":"4","num_nodes":"31","size_leaf_vector":"1"}},{"base_weights":[1.1886127E-3,-2.3319412E-2,8.834915E-2,-4.6766084E-3,-1.482586E-1,6.7111224E-2,2.0600978E-1,-1.6871649E-1,8.2189025E-4,-1.7125076E-1,-6.092974E-2,8.112527E-1,6.6177234E-2,1.85589E-1,4.0860927E-1,-1.963115E-2,-5.934369E-3,2.111878E-3,-3.8367554E-3,-1.6524453E-2,-4.8772946E-2,3.1617412E-4,-9.068172E-3,6.953625E-2,1.0189533E-1,-4.785567E-3,7.3553994E-3,4.302262E-2,1.7459024E-2,-3.5587251E-3,4.2945188E-2],"categories":[],"categories_nodes":[],"categories_segments":[],"categories_sizes":[],"default_left":[0,0,0,0,0,0,0,0,0,0,0,0,0,0,0,0,0,0,0,0,0,0,0,0,0,0,0,0,0,0,0],"id":38,"left_children":[1,3,5,7,9,11,13,15,17,19,21,23,25,27,29,-1,-1,-1,-1,-1,-1,-1,-1,-1,-1,-1,-1,-1,-1,-1,-1],"loss_changes":[1.9785958E3,1.6839438E3,5.079696E2,5.6742834E2,1.8846997E2,1.1963153E2,1.2851929E2,6.1567383E1,4.8417093E2,1.4116406E2,3.7308228E1,4.485321E0,1.4467981E2,7.590552E1,2.6356842E1,0E0,0E0,0E0,0E0,0E0,0E0,0E0,0E0,0E0,0E0,0E0,0E0,0E0,0E0,0E0,0E0],"parents":[2147483647,0,0,1,1,2,2,3,3,4,4,5,5,6,6,7,7,8,8,9,9,10,10,11,11,12,12,13,13,14,14],"right_children":[2,4,6,8,10,12,14,16,18,20,22,24,26,28,30,-1,-1,-1,-1,-1,-1,-1,-1,-1,-1,-1,-1,-1,-1,-1,-1],"split_conditions":[4E0,4.5E0,1.5E1,8.173077E-2,4.4E-1,2.4271845E-3,4.1E1,1E0,1.2E0,3E1,6.1666665E0,7.5E-2,2.2222222E-1,1.25E-1,2.2857143E-1,-1.963115E-2,-5.934369E-3,2.111878E-3,-3.8367554E-3,-1.6524453E-2,-4.8772946E-2,3.1617412E-4,-9.068172E-3,6.953625E-2,1.0189533E-1,-4.785567E-3,7.3553994E-3,4.302262E-2,1.7459024E-2,-3.5587251E-3,4.2945188E-2],"split_indices":[3,0,3,0,1,1,3,3,0,0,0,0,0,1,0,0,0,0,0,0,0,0,0,0,0,0,0,0,0,0,0],"split_type":[0,0,0,0,0,0,0,0,0,0,0,0,0,0,0,0,0,0,0,0,0,0,0,0,0,0,0,0,0,0,0],"sum_hessian":[9.262494E5,7.2296494E5,2.0328442E5,6.290955E5,9.386946E4,1.7220306E5,3.1081355E4,2.0401973E4,6.0869356E5,7.430523E4,1.9564234E4,2.1477731E2,1.7198828E5,2.8237143E4,2.844213E3,1.6290938E4,4.111035E3,4.0100603E5,2.076875E5,7.29228E4,1.3824327E3,6.202897E3,1.3361337E4,1.4064809E2,7.4129234E1,1.0449551E4,1.6153873E5,1.2132677E3,2.7023875E4,1.27443E2,2.7167698E3],"tree_param":{"num_deleted":"0","num_feature":"4","num_nodes":"31","size_leaf_vector":"1"}},{"base_weights":[7.281339E-4,-3.8747303E-2,5.7626177E-2,-6.757179E-2,2.330826E-2,4.640083E-2,1.82797E-1,-1.50237E-1,-4.3928932E-2,1.4303646E-2,9.357143E-2,2.802526E-2,6.924741E-2,1.4357674E-1,3.159831E-1,-1.9302579E-2,-1.1918063E-2,-7.997743E-3,-3.679102E-3,-4.6165413E-3,2.7726477E-3,-3.3308465E-3,1.3826367E-2,2.1555403E-3,8.731925E-3,1.1468128E-2,4.738065E-3,4.1431297E-2,1.3468412E-2,2.7676625E-2,5.9955876E-2],"categories":[],"categories_nodes":[],"categories_segments":[],"categories_sizes":[],"default_left":[0,0,0,0,0,0,0,0,0,0,0,0,0,0,0,0,0,0,0,0,0,0,0,0,0,0,0,0,0,0,0],"id":39,"left_children":[1,3,5,7,9,11,13,15,17,19,21,23,25,27,29,-1,-1,-1,-1,-1,-1,-1,-1,-1,-1,-1,-1,-1,-1,-1,-1],"loss_changes":[2.073931E3,9.75108E2,5.314169E2,7.275134E2,1.0939366E2,1.4571301E2,1.6254749E2,1.0998743E2,7.447705E1,1.2440013E2,1.11381165E2,7.379562E1,1.5370892E2,5.7840057E1,7.857123E1,0E0,0E0,0E0,0E0,0E0,0E0,0E0,0E0,0E0,0E0,0E0,0E0,0E0,0E0,0E0,0E0],"parents":[2147483647,0,0,1,1,2,2,3,3,4,4,5,5,6,6,7,7,8,8,9,9,10,10,11,11,12,12,13,13,14,14],"right_children":[2,4,6,8,10,12,14,16,18,20,22,24,26,28,30,-1,-1,-1,-1,-1,-1,-1,-1,-1,-1,-1,-1,-1,-1,-1,-1],"split_conditions":[1.8E1,3.3333335E-2,1.3E1,8E0,9E0,3.1E1,2.7E1,7E0,9E0,8E0,4.5454547E-1,7E0,6.0975607E-3,6.896552E-2,1.76E2,-1.9302579E-2,-1.1918063E-2,-7.997743E-3,-3.679102E-3,-4.6165413E-3,2.7726477E-3,-3.3308465E-3,1.3826367E-2,2.1555403E-3,8.731925E-3,1.1468128E-2,4.738065E-3,4.1431297E-2,1.3468412E-2,2.7676625E-2,5.9955876E-2],"split_indices":[2,1,3,2,3,2,3,2,2,2,1,3,1,1,2,0,0,0,0,0,0,0,0,0,0,0,0,0,0,0,0],"split_type":[0,0,0,0,0,0,0,0,0,0,0,0,0,0,0,0,0,0,0,0,0,0,0,0,0,0,0,0,0,0,0],"sum_hessian":[9.233557E5,5.451411E5,3.7821453E5,3.722383E5,1.7290283E5,3.470889E5,3.112564E4,8.2784414E4,2.894539E5,1.532626E5,1.9640242E4,1.9236856E5,1.5472034E5,2.4046559E4,7.079082E3,3.4813668E4,4.7970746E4,4.783967E4,2.4161423E5,2.784047E4,1.2542212E5,5.1160854E3,1.4524157E4,1.7344453E5,1.892402E4,5.026907E4,1.04451266E5,7.6326794E2,2.3283291E4,6.2207627E3,8.583191E2],"tree_param":{"num_deleted":"0","num_feature":"4","num_nodes":"31","size_leaf_vector":"1"}},{"base_weights":[-9.118513E-4,-5.4751467E-2,3.0181382E-2,-3.3872828E-2,-5.225024E-1,-6.693355E-2,4.5162942E-2,8.820723E-3,-1.3517997E-1,-5.8037204E-1,9.13223E-2,-7.102473E-2,3.538741E-1,5.420955E-2,-1.4201856E-1,4.1317674E-3,-3.566453E-3,-2.7049467E-2,-6.3853483E-3,-6.096145E-2,-4.7040623E-2,-9.004363E-3,2.0195557E-2,-1.3297555E-2,-5.73977E-3,9.035713E-2,2.1181877E-3,4.0994654E-3,1.1866128E-2,-3.5169307E-2,-5.5457507E-3],"categories":[],"categories_nodes":[],"categories_segments":[],"categories_sizes":[],"default_left":[0,0,0,0,0,0,0,0,0,0,0,0,0,0,0,0,0,0,0,0,0,0,0,0,0,0,0,0,0,0,0],"id":40,"left_children":[1,3,5,7,9,11,13,15,17,19,21,23,25,27,29,-1,-1,-1,-1,-1,-1,-1,-1,-1,-1,-1,-1,-1,-1,-1,-1],"loss_changes":[1.5413177E3,3.2917668E3,8.491711E2,1.3955762E3,5.1165186E2,1.343172E2,8.562444E2,3.2816232E2,9.232864E2,4.203662E1,2.4932987E1,6.521057E1,1.373674E2,4.1080957E2,4.2308044E2,0E0,0E0,0E0,0E0,0E0,0E0,0E0,0E0,0E0,0E0,0E0,0E0,0E0,0E0,0E0,0E0],"parents":[2147483647,0,0,1,1,2,2,3,3,4,4,5,5,6,6,7,7,8,8,9,9,10,10,11,11,12,12,13,13,14,14],"right_children":[2,4,6,8,10,12,14,16,18,20,22,24,26,28,30,-1,-1,-1,-1,-1,-1,-1,-1,-1,-1,-1,-1,-1,-1,-1,-1],"split_conditions":[1.2E1,5.6666665E0,2.580645E-1,1.8571428E0,2.4271845E-3,1.76E2,1.2E1,6.363636E-1,8E0,9.5E0,1.125E0,8.82353E-2,1.010101E-1,4.4E1,2.4E1,4.1317674E-3,-3.566453E-3,-2.7049467E-2,-6.3853483E-3,-6.096145E-2,-4.7040623E-2,-9.004363E-3,2.0195557E-2,-1.3297555E-2,-5.73977E-3,9.035713E-2,2.1181877E-3,4.0994654E-3,1.1866128E-2,-3.5169307E-2,-5.5457507E-3],"split_indices":[2,0,0,0,1,2,0,0,2,0,1,0,0,2,2,0,0,0,0,0,0,0,0,0,0,0,0,0,0,0,0],"split_type":[0,0,0,0,0,0,0,0,0,0,0,0,0,0,0,0,0,0,0,0,0,0,0,0,0,0,0,0,0,0,0],"sum_hessian":[9.207111E5,3.3706466E5,5.8364644E5,3.2266325E5,1.4401399E4,7.800318E4,5.0564328E5,2.2700019E5,9.566306E4,1.3160701E4,1.240698E3,7.7252945E4,7.502388E2,4.8233253E5,2.3310746E4,1.311753E5,9.582489E4,3.3019125E4,6.2643938E4,1.039254E4,2.7681619E3,4.7014874E2,7.705492E2,1.3927483E4,6.332546E4,2.8221973E2,4.6801904E2,4.002655E5,8.206705E4,6.8105854E3,1.650016E4],"tree_param":{"num_deleted":"0","num_feature":"4","num_nodes":"31","size_leaf_vector":"1"}},{"base_weights":[-1.2602524E-3,-6.944712E-2,2.2052545E-2,5.2383193E-3,-2.615576E-1,-9.043182E-2,3.0285945E-2,5.7061188E-2,-4.3396294E-2,-2.0064011E-1,-5.786035E-1,-9.908132E-2,3.9314735E-1,3.7960723E-2,-1.01169124E-1,-3.368165E-3,1.0320353E-2,-6.7257965E-3,4.5316163E-3,-2.462674E-2,-4.752211E-3,-6.0975533E-2,-1.588224E-2,-1.4798774E-2,-7.0247413E-3,-3.4453608E-2,7.193975E-2,2.9613934E-3,1.4102267E-2,-3.0831162E-2,-1.7331984E-3],"categories":[],"categories_nodes":[],"categories_segments":[],"categories_sizes":[],"default_left":[0,0,0,0,0,0,0,0,0,0,0,0,0,0,0,0,0,0,0,0,0,0,0,0,0,0,0,0,0,0,0],"id":41,"left_children":[1,3,5,7,9,11,13,15,17,19,21,23,25,27,29,-1,-1,-1,-1,-1,-1,-1,-1,-1,-1,-1,-1,-1,-1,-1,-1],"loss_changes":[1.458744E3,3.3546406E3,6.333423E2,4.24329E2,1.263979E3,1.9512866E2,6.428837E2,3.4128345E2,1.8385184E2,3.8356396E2,1.3784375E2,6.4607544E1,1.9754791E2,5.179148E2,6.104321E2,0E0,0E0,0E0,0E0,0E0,0E0,0E0,0E0,0E0,0E0,0E0,0E0,0E0,0E0,0E0,0E0],"parents":[2147483647,0,0,1,1,2,2,3,3,4,4,5,5,6,6,7,7,8,8,9,9,10,10,11,11,12,12,13,13,14,14],"right_children":[2,4,6,8,10,12,14,16,18,20,22,24,26,28,30,-1,-1,-1,-1,-1,-1,-1,-1,-1,-1,-1,-1,-1,-1,-1,-1],"split_conditions":[1E1,2.3333333E0,1.6E-1,5.714286E-1,5.3333335E0,1.27E2,9.5E0,1.875E-1,2E0,9E0,1E0,8.82353E-2,1E0,1.1E1,2E1,-3.368165E-3,1.0320353E-2,-6.7257965E-3,4.5316163E-3,-2.462674E-2,-4.752211E-3,-6.0975533E-2,-1.588224E-2,-1.4798774E-2,-7.0247413E-3,-3.4453608E-2,7.193975E-2,2.9613934E-3,1.4102267E-2,-3.0831162E-2,-1.7331984E-3],"split_indices":[2,0,0,0,0,2,0,0,3,2,3,0,3,3,2,0,0,0,0,0,0,0,0,0,0,0,0,0,0,0,0],"split_type":[0,0,0,0,0,0,0,0,0,0,0,0,0,0,0,0,0,0,0,0,0,0,0,0,0,0,0,0,0,0,0],"sum_hessian":[9.176627E5,2.3380673E5,6.8385594E5,1.6835681E5,6.5449918E4,4.6640836E4,6.372151E5,8.150672E4,8.685009E4,5.490253E4,1.0547389E4,4.582204E4,8.1879724E2,6.0206525E5,3.514983E4,2.7475021E4,5.40317E4,6.844118E4,1.8408908E4,4.2297723E4,1.2604809E4,9.818322E3,7.290661E2,1.6993877E4,2.8828162E4,2.5106308E2,5.677342E2,5.569595E5,4.5105773E4,1.0126607E4,2.5023219E4],"tree_param":{"num_deleted":"0","num_feature":"4","num_nodes":"31","size_leaf_vector":"1"}},{"base_weights":[-4.5673584E-4,-7.304075E-2,1.6574757E-2,-9.265141E-2,3.2326307E-2,1.1128256E-2,1.5664695E-1,3.3067024E-1,-9.466506E-2,6.6683437E-3,1.7257904E-1,-4.8771588E-4,5.1996768E-2,1.3885611E-1,4.6165198E-1,1.6445212E-2,7.7150576E-2,-1.1650551E-2,-5.720655E-3,9.439965E-3,-1.1940368E-4,1.285777E-2,2.6402866E-2,-1.3152724E-3,3.0920887E-3,7.101116E-3,1.1455362E-3,1.2618119E-2,3.4755267E-2,4.8878647E-2,-4.7866073E-2],"categories":[],"categories_nodes":[],"categories_segments":[],"categories_sizes":[],"default_left":[0,0,0,0,0,0,0,0,0,0,0,0,0,0,0,0,0,0,0,0,0,0,0,0,0,0,0,0,0,0,0],"id":42,"left_children":[1,3,5,7,9,11,13,15,17,19,21,23,25,27,29,-1,-1,-1,-1,-1,-1,-1,-1,-1,-1,-1,-1,-1,-1,-1,-1],"loss_changes":[1.1316443E3,3.5948975E2,5.6564276E2,1.2506055E2,9.823937E1,3.388069E2,1.5051862E2,5.077153E1,1.19423096E2,1.59193535E1,1.6954315E1,2.2106573E2,1.2176172E2,6.932028E1,3.924716E1,0E0,0E0,0E0,0E0,0E0,0E0,0E0,0E0,0E0,0E0,0E0,0E0,0E0,0E0,0E0,0E0],"parents":[2147483647,0,0,1,1,2,2,3,3,4,4,5,5,6,6,7,7,8,8,9,9,10,10,11,11,12,12,13,13,14,14],"right_children":[2,4,6,8,10,12,14,16,18,20,22,24,26,28,30,-1,-1,-1,-1,-1,-1,-1,-1,-1,-1,-1,-1,-1,-1,-1,-1],"split_conditions":[9E0,2.3684211E-1,1.5E1,5E0,1.6666666E0,3.1E1,1.76E2,9E0,8E0,5E0,1.3E1,8.571429E-2,1.0526316E-1,4.6E1,5E0,1.6445212E-2,7.7150576E-2,-1.1650551E-2,-5.720655E-3,9.439965E-3,-1.1940368E-4,1.285777E-2,2.6402866E-2,-1.3152724E-3,3.0920887E-3,7.101116E-3,1.1455362E-3,1.2618119E-2,3.4755267E-2,4.8878647E-2,-4.7866073E-2],"split_indices":[2,1,3,2,1,2,2,3,2,2,3,1,1,3,1,0,0,0,0,0,0,0,0,0,0,0,0,0,0,0,0],"split_type":[0,0,0,0,0,0,0,0,0,0,0,0,0,0,0,0,0,0,0,0,0,0,0,0,0,0,0,0,0,0,0],"sum_hessian":[9.1540925E5,1.7397356E5,7.414357E5,1.466749E5,2.7298656E4,7.136861E5,2.7749555E4,6.936232E2,1.459813E5,2.3077824E4,4.220831E3,5.5573244E5,1.5795369E5,2.6221518E4,1.5280371E3,5.046985E2,1.8892476E2,9.221345E4,5.376784E4,1.8971975E3,2.1180627E4,2.8513154E3,1.3695154E3,3.9603738E5,1.5969505E5,1.0752327E5,5.0430406E4,2.4721682E4,1.4998359E3,1.4856462E3,4.239089E1],"tree_param":{"num_deleted":"0","num_feature":"4","num_nodes":"31","size_leaf_vector":"1"}},{"base_weights":[2.2917252E-4,1.3108784E-2,-8.745589E-2,3.421536E-3,8.8249356E-2,-5.227455E-1,-5.5552337E-2,-5.9508145E-2,1.3812044E-2,7.259525E-2,2.5862867E-1,-5.677698E-1,-1.4375006E-3,-1.4527816E-1,1.7991154E-2,4.590403E-3,-1.9843554E-2,-6.2247803E-3,2.5285988E-3,-2.1956214E-3,9.275717E-3,2.0585828E-2,4.4337153E-2,-6.6934906E-2,-5.2232087E-2,1.4557044E-2,-3.147406E-2,-1.0125156E-2,-3.2715563E-2,4.0342296E-3,-1.7702704E-2],"categories":[],"categories_nodes":[],"categories_segments":[],"categories_sizes":[],"default_left":[0,0,0,0,0,0,0,0,0,0,0,0,0,0,0,0,0,0,0,0,0,0,0,0,0,0,0,0,0,0,0],"id":43,"left_children":[1,3,5,7,9,11,13,15,17,19,21,23,25,27,29,-1,-1,-1,-1,-1,-1,-1,-1,-1,-1,-1,-1,-1,-1,-1,-1],"loss_changes":[1.0321415E3,5.8005035E2,1.6254655E3,4.6155228E2,2.426969E2,1.8760474E2,7.196438E2,1.4649514E3,5.28725E2,1.5888809E2,7.4558044E1,3.3617188E1,2.9359497E1,3.933258E2,2.6125244E2,0E0,0E0,0E0,0E0,0E0,0E0,0E0,0E0,0E0,0E0,0E0,0E0,0E0,0E0,0E0,0E0],"parents":[2147483647,0,0,1,1,2,2,3,3,4,4,5,5,6,6,7,7,8,8,9,9,10,10,11,11,12,12,13,13,14,14],"right_children":[2,4,6,8,10,12,14,16,18,20,22,24,26,28,30,-1,-1,-1,-1,-1,-1,-1,-1,-1,-1,-1,-1,-1,-1,-1,-1],"split_conditions":[4.5E0,7E0,9E0,8E0,9.1E1,1E0,1.7E1,1.1836735E0,2E-1,3.9814815E-1,1.76E2,6.1666665E0,7.5E0,8.5E0,2.2E1,4.590403E-3,-1.9843554E-2,-6.2247803E-3,2.5285988E-3,-2.1956214E-3,9.275717E-3,2.0585828E-2,4.4337153E-2,-6.6934906E-2,-5.2232087E-2,1.4557044E-2,-3.147406E-2,-1.0125156E-2,-3.2715563E-2,4.0342296E-3,-1.7702704E-2],"split_indices":[0,3,2,2,2,3,2,0,0,0,2,0,0,0,0,0,0,0,0,0,0,0,0,0,0,0,0,0,0,0,0],"split_type":[0,0,0,0,0,0,0,0,0,0,0,0,0,0,0,0,0,0,0,0,0,0,0,0,0,0,0,0,0,0,0],"sum_hessian":[9.139235E5,7.9687544E5,1.1704811E5,7.05874E5,9.100141E4,7.991897E3,1.0905621E5,1.00031664E5,6.058424E5,8.334524E4,7.6561646E3,7.3564463E3,6.3545087E2,4.9123152E4,5.993306E4,5.687671E4,4.315495E4,7.9413336E4,5.26429E5,1.4648663E4,6.8696586E4,5.9567725E3,1.699392E3,2.269764E3,5.0866826E3,4.328735E2,2.0257735E2,3.955076E4,9.572392E3,5.3771117E4,6.161943E3],"tree_param":{"num_deleted":"0","num_feature":"4","num_nodes":"31","size_leaf_vector":"1"}},{"base_weights":[-7.853638E-4,1.2125133E-2,-7.328735E-2,1.9675499E-4,6.909716E-2,-1.1472306E-1,-8.583802E-4,-5.3056624E-2,8.713121E-3,5.842767E-2,2.1470252E-1,-9.702971E-2,-2.1026976E-1,-1.3903342E-2,1.2022473E-1,-1.4752342E-2,-4.1368795E-3,6.397857E-4,2.0031273E-2,6.76923E-2,5.656147E-3,5.7546724E-2,2.0068532E-2,-9.83152E-3,4.1585963E-2,-1.8891623E-2,-4.030587E-2,2.2147554E-3,-5.3957584E-3,9.325436E-3,3.867367E-2],"categories":[],"categories_nodes":[],"categories_segments":[],"categories_sizes":[],"default_left":[0,0,0,0,0,0,0,0,0,0,0,0,0,0,0,0,0,0,0,0,0,0,0,0,0,0,0,0,0,0,0],"id":44,"left_children":[1,3,5,7,9,11,13,15,17,19,21,23,25,27,29,-1,-1,-1,-1,-1,-1,-1,-1,-1,-1,-1,-1,-1,-1,-1,-1],"loss_changes":[8.5277136E2,5.2554675E2,4.1328357E2,2.900087E2,2.0798053E2,1.4806433E2,7.915735E1,9.7336075E1,2.4455336E2,1.4394635E2,4.610672E1,4.8771362E1,5.626422E1,6.53282E1,3.4998085E1,0E0,0E0,0E0,0E0,0E0,0E0,0E0,0E0,0E0,0E0,0E0,0E0,0E0,0E0,0E0,0E0],"parents":[2147483647,0,0,1,1,2,2,3,3,4,4,5,5,6,6,7,7,8,8,9,9,10,10,11,11,12,12,13,13,14,14],"right_children":[2,4,6,8,10,12,14,16,18,20,22,24,26,28,30,-1,-1,-1,-1,-1,-1,-1,-1,-1,-1,-1,-1,-1,-1,-1,-1],"split_conditions":[4E0,5E0,4.4E-1,2E-1,2.3E1,1.1E1,1.6E1,5.4744527E-2,3.6666667E0,2.978972E-2,9.2307694E-2,1.0666667E1,3E1,7.5E0,4.7E1,-1.4752342E-2,-4.1368795E-3,6.397857E-4,2.0031273E-2,6.76923E-2,5.656147E-3,5.7546724E-2,2.0068532E-2,-9.83152E-3,4.1585963E-2,-1.8891623E-2,-4.030587E-2,2.2147554E-3,-5.3957584E-3,9.325436E-3,3.867367E-2],"split_indices":[0,3,1,0,3,0,3,0,0,0,1,0,0,0,3,0,0,0,0,0,0,0,0,0,0,0,0,0,0,0,0],"split_type":[0,0,0,0,0,0,0,0,0,0,0,0,0,0,0,0,0,0,0,0,0,0,0,0,0,0,0,0,0,0,0],"sum_hessian":[9.110428E5,7.733352E5,1.3770767E5,6.394524E5,1.3388277E5,8.759506E4,5.011261E4,8.816235E4,5.5129006E5,1.24743375E5,9.139392E3,7.391035E4,1.368471E4,4.5239582E4,4.8730283E3,9.705565E3,7.845679E4,5.447089E5,6.581153E3,3.7417105E2,1.243692E5,3.4032407E2,8.799067E3,7.3726375E4,1.8397607E2,1.23219E4,1.3628091E3,2.380989E4,2.1429691E4,4.4264336E3,4.4659445E2],"tree_param":{"num_deleted":"0","num_feature":"4","num_nodes":"31","size_leaf_vector":"1"}},{"base_weights":[1.2603988E-3,-2.2821605E-2,3.9966434E-2,-4.0328078E-2,1.258583E-2,3.5940703E-2,2.3712769E-1,-8.7585494E-2,-2.7806936E-2,-1.264457E-3,5.1145367E-2,6.192935E-2,2.1719491E-2,2.0169352E-1,4.9015895E-1,-8.899706E-3,7.165505E-2,-2.6147233E-3,-1.5211678E-2,-9.606103E-5,-2.7985573E-1,3.0813657E-3,1.1429126E-2,5.7446896E-3,3.4451824E-2,-4.7713108E-4,4.529673E-3,5.3610366E-2,1.8073997E-2,8.12036E-2,4.4614937E-2],"categories":[],"categories_nodes":[],"categories_segments":[],"categories_sizes":[],"default_left":[0,0,0,0,0,0,0,0,0,0,0,0,0,0,0,0,0,0,0,0,0,0,0,0,0,0,0,0,0,0,0],"id":45,"left_children":[1,3,5,7,9,11,13,15,17,19,21,23,25,27,29,-1,-1,-1,-1,-1,-1,-1,-1,-1,-1,-1,-1,-1,-1,-1,-1],"loss_changes":[8.49083E2,3.4807623E2,2.7729858E2,2.223385E2,9.9220665E1,1.26541534E2,6.2580536E1,8.940112E1,6.1283035E1,1.16175865E2,6.3030716E1,1.5336813E2,1.382167E2,4.2883118E1,1.1792297E1,0E0,0E0,0E0,0E0,0E0,0E0,0E0,0E0,0E0,0E0,0E0,0E0,0E0,0E0,0E0,0E0],"parents":[2147483647,0,0,1,1,2,2,3,3,4,4,5,5,6,6,7,7,8,8,9,9,10,10,11,11,12,12,13,13,14,14],"right_children":[2,4,6,8,10,12,14,16,18,20,22,24,26,28,30,-1,-1,-1,-1,-1,-1,-1,-1,-1,-1,-1,-1,-1,-1,-1,-1],"split_conditions":[1.9E1,2.9411765E-2,2.6E1,8E0,5.3571427E-1,6.0975607E-3,5.7E1,3E0,2E0,3.6E1,1E1,2E0,4E0,1.6666667E-1,3.3333334E-1,-8.899706E-3,7.165505E-2,-2.6147233E-3,-1.5211678E-2,-9.606103E-5,-2.7985573E-1,3.0813657E-3,1.1429126E-2,5.7446896E-3,3.4451824E-2,-4.7713108E-4,4.529673E-3,5.3610366E-2,1.8073997E-2,8.12036E-2,4.4614937E-2],"split_indices":[2,1,3,2,1,1,3,3,3,3,3,3,3,1,1,0,0,0,0,0,0,0,0,0,0,0,0,0,0,0,0],"split_type":[0,0,0,0,0,0,0,0,0,0,0,0,0,0,0,0,0,0,0,0,0,0,0,0,0,0,0,0,0,0,0],"sum_hessian":[9.1091506E5,5.615389E5,3.493762E5,3.7575466E5,1.8578425E5,3.4238634E5,6.989823E3,7.870386E4,2.9705078E5,1.3668795E5,4.909629E4,1.2109221E5,2.2129414E5,6.132792E3,8.570313E2,7.856683E4,1.3702565E2,2.9313822E5,3.9125823E3,1.3667411E5,1.3845434E1,3.713958E4,1.1956711E4,1.1920261E5,1.8896019E3,1.0420866E5,1.17085484E5,3.6016263E2,5.7726294E3,1.00986404E2,7.560449E2],"tree_param":{"num_deleted":"0","num_feature":"4","num_nodes":"31","size_leaf_vector":"1"}},{"base_weights":[9.004871E-4,-3.7261106E-2,2.2705536E-2,-2.158003E-2,-4.4230688E-1,-3.041869E-2,3.8958352E-2,1.1423215E-2,-1.0202653E-1,-4.8133558E-1,1.5866746E-1,-1.0767577E-2,-6.0293E-2,4.5768157E-2,-8.5435815E-2,